tree
version=v3
num_class=18
num_tree_per_iteration=18
label_index=0
max_feature_idx=835
objective=multiclass num_class:18
feature_names=place race_number field distance direction weather field_condition max_prize horse_01_0 jockey_01_0 stable_01_0 trainer_01_0 post_01_0 number_01_0 sex_01_0 age_01_0 jockey_class_01_0 jockey_weight_01_0 popularity_01_0 odds_01_0 weight_01_0 weight_difference_01_0 jockey_01_1 stable_01_1 trainer_01_1 rank_01_1 post_01_1 number_01_1 sex_01_1 age_01_1 jockey_class_01_1 jockey_weight_01_1 time_01_1 margin_01_1 popularity_01_1 odds_01_1 weight_01_1 weight_difference_01_1 jockey_01_2 stable_01_2 trainer_01_2 rank_01_2 post_01_2 number_01_2 sex_01_2 age_01_2 jockey_class_01_2 jockey_weight_01_2 time_01_2 margin_01_2 popularity_01_2 odds_01_2 weight_01_2 weight_difference_01_2 horse_02_0 jockey_02_0 stable_02_0 trainer_02_0 post_02_0 number_02_0 sex_02_0 age_02_0 jockey_class_02_0 jockey_weight_02_0 popularity_02_0 odds_02_0 weight_02_0 weight_difference_02_0 jockey_02_1 stable_02_1 trainer_02_1 rank_02_1 post_02_1 number_02_1 sex_02_1 age_02_1 jockey_class_02_1 jockey_weight_02_1 time_02_1 margin_02_1 popularity_02_1 odds_02_1 weight_02_1 weight_difference_02_1 jockey_02_2 stable_02_2 trainer_02_2 rank_02_2 post_02_2 number_02_2 sex_02_2 age_02_2 jockey_class_02_2 jockey_weight_02_2 time_02_2 margin_02_2 popularity_02_2 odds_02_2 weight_02_2 weight_difference_02_2 horse_03_0 jockey_03_0 stable_03_0 trainer_03_0 post_03_0 number_03_0 sex_03_0 age_03_0 jockey_class_03_0 jockey_weight_03_0 popularity_03_0 odds_03_0 weight_03_0 weight_difference_03_0 jockey_03_1 stable_03_1 trainer_03_1 rank_03_1 post_03_1 number_03_1 sex_03_1 age_03_1 jockey_class_03_1 jockey_weight_03_1 time_03_1 margin_03_1 popularity_03_1 odds_03_1 weight_03_1 weight_difference_03_1 jockey_03_2 stable_03_2 trainer_03_2 rank_03_2 post_03_2 number_03_2 sex_03_2 age_03_2 jockey_class_03_2 jockey_weight_03_2 time_03_2 margin_03_2 popularity_03_2 odds_03_2 weight_03_2 weight_difference_03_2 horse_04_0 jockey_04_0 stable_04_0 trainer_04_0 post_04_0 number_04_0 sex_04_0 age_04_0 jockey_class_04_0 jockey_weight_04_0 popularity_04_0 odds_04_0 weight_04_0 weight_difference_04_0 jockey_04_1 stable_04_1 trainer_04_1 rank_04_1 post_04_1 number_04_1 sex_04_1 age_04_1 jockey_class_04_1 jockey_weight_04_1 time_04_1 margin_04_1 popularity_04_1 odds_04_1 weight_04_1 weight_difference_04_1 jockey_04_2 stable_04_2 trainer_04_2 rank_04_2 post_04_2 number_04_2 sex_04_2 age_04_2 jockey_class_04_2 jockey_weight_04_2 time_04_2 margin_04_2 popularity_04_2 odds_04_2 weight_04_2 weight_difference_04_2 horse_05_0 jockey_05_0 stable_05_0 trainer_05_0 post_05_0 number_05_0 sex_05_0 age_05_0 jockey_class_05_0 jockey_weight_05_0 popularity_05_0 odds_05_0 weight_05_0 weight_difference_05_0 jockey_05_1 stable_05_1 trainer_05_1 rank_05_1 post_05_1 number_05_1 sex_05_1 age_05_1 jockey_class_05_1 jockey_weight_05_1 time_05_1 margin_05_1 popularity_05_1 odds_05_1 weight_05_1 weight_difference_05_1 jockey_05_2 stable_05_2 trainer_05_2 rank_05_2 post_05_2 number_05_2 sex_05_2 age_05_2 jockey_class_05_2 jockey_weight_05_2 time_05_2 margin_05_2 popularity_05_2 odds_05_2 weight_05_2 weight_difference_05_2 horse_06_0 jockey_06_0 stable_06_0 trainer_06_0 post_06_0 number_06_0 sex_06_0 age_06_0 jockey_class_06_0 jockey_weight_06_0 popularity_06_0 odds_06_0 weight_06_0 weight_difference_06_0 jockey_06_1 stable_06_1 trainer_06_1 rank_06_1 post_06_1 number_06_1 sex_06_1 age_06_1 jockey_class_06_1 jockey_weight_06_1 time_06_1 margin_06_1 popularity_06_1 odds_06_1 weight_06_1 weight_difference_06_1 jockey_06_2 stable_06_2 trainer_06_2 rank_06_2 post_06_2 number_06_2 sex_06_2 age_06_2 jockey_class_06_2 jockey_weight_06_2 time_06_2 margin_06_2 popularity_06_2 odds_06_2 weight_06_2 weight_difference_06_2 horse_07_0 jockey_07_0 stable_07_0 trainer_07_0 post_07_0 number_07_0 sex_07_0 age_07_0 jockey_class_07_0 jockey_weight_07_0 popularity_07_0 odds_07_0 weight_07_0 weight_difference_07_0 jockey_07_1 stable_07_1 trainer_07_1 rank_07_1 post_07_1 number_07_1 sex_07_1 age_07_1 jockey_class_07_1 jockey_weight_07_1 time_07_1 margin_07_1 popularity_07_1 odds_07_1 weight_07_1 weight_difference_07_1 jockey_07_2 stable_07_2 trainer_07_2 rank_07_2 post_07_2 number_07_2 sex_07_2 age_07_2 jockey_class_07_2 jockey_weight_07_2 time_07_2 margin_07_2 popularity_07_2 odds_07_2 weight_07_2 weight_difference_07_2 horse_08_0 jockey_08_0 stable_08_0 trainer_08_0 post_08_0 number_08_0 sex_08_0 age_08_0 jockey_class_08_0 jockey_weight_08_0 popularity_08_0 odds_08_0 weight_08_0 weight_difference_08_0 jockey_08_1 stable_08_1 trainer_08_1 rank_08_1 post_08_1 number_08_1 sex_08_1 age_08_1 jockey_class_08_1 jockey_weight_08_1 time_08_1 margin_08_1 popularity_08_1 odds_08_1 weight_08_1 weight_difference_08_1 jockey_08_2 stable_08_2 trainer_08_2 rank_08_2 post_08_2 number_08_2 sex_08_2 age_08_2 jockey_class_08_2 jockey_weight_08_2 time_08_2 margin_08_2 popularity_08_2 odds_08_2 weight_08_2 weight_difference_08_2 horse_09_0 jockey_09_0 stable_09_0 trainer_09_0 post_09_0 number_09_0 sex_09_0 age_09_0 jockey_class_09_0 jockey_weight_09_0 popularity_09_0 odds_09_0 weight_09_0 weight_difference_09_0 jockey_09_1 stable_09_1 trainer_09_1 rank_09_1 post_09_1 number_09_1 sex_09_1 age_09_1 jockey_class_09_1 jockey_weight_09_1 time_09_1 margin_09_1 popularity_09_1 odds_09_1 weight_09_1 weight_difference_09_1 jockey_09_2 stable_09_2 trainer_09_2 rank_09_2 post_09_2 number_09_2 sex_09_2 age_09_2 jockey_class_09_2 jockey_weight_09_2 time_09_2 margin_09_2 popularity_09_2 odds_09_2 weight_09_2 weight_difference_09_2 horse_10_0 jockey_10_0 stable_10_0 trainer_10_0 post_10_0 number_10_0 sex_10_0 age_10_0 jockey_class_10_0 jockey_weight_10_0 popularity_10_0 odds_10_0 weight_10_0 weight_difference_10_0 jockey_10_1 stable_10_1 trainer_10_1 rank_10_1 post_10_1 number_10_1 sex_10_1 age_10_1 jockey_class_10_1 jockey_weight_10_1 time_10_1 margin_10_1 popularity_10_1 odds_10_1 weight_10_1 weight_difference_10_1 jockey_10_2 stable_10_2 trainer_10_2 rank_10_2 post_10_2 number_10_2 sex_10_2 age_10_2 jockey_class_10_2 jockey_weight_10_2 time_10_2 margin_10_2 popularity_10_2 odds_10_2 weight_10_2 weight_difference_10_2 horse_11_0 jockey_11_0 stable_11_0 trainer_11_0 post_11_0 number_11_0 sex_11_0 age_11_0 jockey_class_11_0 jockey_weight_11_0 popularity_11_0 odds_11_0 weight_11_0 weight_difference_11_0 jockey_11_1 stable_11_1 trainer_11_1 rank_11_1 post_11_1 number_11_1 sex_11_1 age_11_1 jockey_class_11_1 jockey_weight_11_1 time_11_1 margin_11_1 popularity_11_1 odds_11_1 weight_11_1 weight_difference_11_1 jockey_11_2 stable_11_2 trainer_11_2 rank_11_2 post_11_2 number_11_2 sex_11_2 age_11_2 jockey_class_11_2 jockey_weight_11_2 time_11_2 margin_11_2 popularity_11_2 odds_11_2 weight_11_2 weight_difference_11_2 horse_12_0 jockey_12_0 stable_12_0 trainer_12_0 post_12_0 number_12_0 sex_12_0 age_12_0 jockey_class_12_0 jockey_weight_12_0 popularity_12_0 odds_12_0 weight_12_0 weight_difference_12_0 jockey_12_1 stable_12_1 trainer_12_1 rank_12_1 post_12_1 number_12_1 sex_12_1 age_12_1 jockey_class_12_1 jockey_weight_12_1 time_12_1 margin_12_1 popularity_12_1 odds_12_1 weight_12_1 weight_difference_12_1 jockey_12_2 stable_12_2 trainer_12_2 rank_12_2 post_12_2 number_12_2 sex_12_2 age_12_2 jockey_class_12_2 jockey_weight_12_2 time_12_2 margin_12_2 popularity_12_2 odds_12_2 weight_12_2 weight_difference_12_2 horse_13_0 jockey_13_0 stable_13_0 trainer_13_0 post_13_0 number_13_0 sex_13_0 age_13_0 jockey_class_13_0 jockey_weight_13_0 popularity_13_0 odds_13_0 weight_13_0 weight_difference_13_0 jockey_13_1 stable_13_1 trainer_13_1 rank_13_1 post_13_1 number_13_1 sex_13_1 age_13_1 jockey_class_13_1 jockey_weight_13_1 time_13_1 margin_13_1 popularity_13_1 odds_13_1 weight_13_1 weight_difference_13_1 jockey_13_2 stable_13_2 trainer_13_2 rank_13_2 post_13_2 number_13_2 sex_13_2 age_13_2 jockey_class_13_2 jockey_weight_13_2 time_13_2 margin_13_2 popularity_13_2 odds_13_2 weight_13_2 weight_difference_13_2 horse_14_0 jockey_14_0 stable_14_0 trainer_14_0 post_14_0 number_14_0 sex_14_0 age_14_0 jockey_class_14_0 jockey_weight_14_0 popularity_14_0 odds_14_0 weight_14_0 weight_difference_14_0 jockey_14_1 stable_14_1 trainer_14_1 rank_14_1 post_14_1 number_14_1 sex_14_1 age_14_1 jockey_class_14_1 jockey_weight_14_1 time_14_1 margin_14_1 popularity_14_1 odds_14_1 weight_14_1 weight_difference_14_1 jockey_14_2 stable_14_2 trainer_14_2 rank_14_2 post_14_2 number_14_2 sex_14_2 age_14_2 jockey_class_14_2 jockey_weight_14_2 time_14_2 margin_14_2 popularity_14_2 odds_14_2 weight_14_2 weight_difference_14_2 horse_15_0 jockey_15_0 stable_15_0 trainer_15_0 post_15_0 number_15_0 sex_15_0 age_15_0 jockey_class_15_0 jockey_weight_15_0 popularity_15_0 odds_15_0 weight_15_0 weight_difference_15_0 jockey_15_1 stable_15_1 trainer_15_1 rank_15_1 post_15_1 number_15_1 sex_15_1 age_15_1 jockey_class_15_1 jockey_weight_15_1 time_15_1 margin_15_1 popularity_15_1 odds_15_1 weight_15_1 weight_difference_15_1 jockey_15_2 stable_15_2 trainer_15_2 rank_15_2 post_15_2 number_15_2 sex_15_2 age_15_2 jockey_class_15_2 jockey_weight_15_2 time_15_2 margin_15_2 popularity_15_2 odds_15_2 weight_15_2 weight_difference_15_2 horse_16_0 jockey_16_0 stable_16_0 trainer_16_0 post_16_0 number_16_0 sex_16_0 age_16_0 jockey_class_16_0 jockey_weight_16_0 popularity_16_0 odds_16_0 weight_16_0 weight_difference_16_0 jockey_16_1 stable_16_1 trainer_16_1 rank_16_1 post_16_1 number_16_1 sex_16_1 age_16_1 jockey_class_16_1 jockey_weight_16_1 time_16_1 margin_16_1 popularity_16_1 odds_16_1 weight_16_1 weight_difference_16_1 jockey_16_2 stable_16_2 trainer_16_2 rank_16_2 post_16_2 number_16_2 sex_16_2 age_16_2 jockey_class_16_2 jockey_weight_16_2 time_16_2 margin_16_2 popularity_16_2 odds_16_2 weight_16_2 weight_difference_16_2 horse_17_0 jockey_17_0 stable_17_0 trainer_17_0 post_17_0 number_17_0 sex_17_0 age_17_0 jockey_class_17_0 jockey_weight_17_0 popularity_17_0 odds_17_0 weight_17_0 weight_difference_17_0 jockey_17_1 stable_17_1 trainer_17_1 rank_17_1 post_17_1 number_17_1 sex_17_1 age_17_1 jockey_class_17_1 jockey_weight_17_1 time_17_1 margin_17_1 popularity_17_1 odds_17_1 weight_17_1 weight_difference_17_1 jockey_17_2 stable_17_2 trainer_17_2 rank_17_2 post_17_2 number_17_2 sex_17_2 age_17_2 jockey_class_17_2 jockey_weight_17_2 time_17_2 margin_17_2 popularity_17_2 odds_17_2 weight_17_2 weight_difference_17_2 horse_18_0 jockey_18_0 stable_18_0 trainer_18_0 post_18_0 number_18_0 sex_18_0 age_18_0 jockey_class_18_0 jockey_weight_18_0 popularity_18_0 odds_18_0 weight_18_0 weight_difference_18_0 jockey_18_1 stable_18_1 trainer_18_1 rank_18_1 post_18_1 number_18_1 sex_18_1 age_18_1 jockey_class_18_1 jockey_weight_18_1 time_18_1 margin_18_1 popularity_18_1 odds_18_1 weight_18_1 weight_difference_18_1 jockey_18_2 stable_18_2 trainer_18_2 rank_18_2 post_18_2 number_18_2 sex_18_2 age_18_2 jockey_class_18_2 jockey_weight_18_2 time_18_2 margin_18_2 popularity_18_2 odds_18_2 weight_18_2 weight_difference_18_2
feature_infos=-1:4:7:8:5:3:2:10:9:6:1 [1:12] -1:1:2:3 [1000:4260] -1:1:3:8:4:7:5:2:6:9:10 -1:2:1:3:4:5 -1:1:3:2:4 [400:25000] -1:5174:11849:14776:15033:341:6362:9012:9904:11914:12556:14658:18409:19334:19671:21327:23309:710:855:1113:1432:2546:3540:3897:4807:6354:6921:7042:7143:7187:7270:7316:7416:8403:8630:8967:9174:10123:10672:11388:11772:11886:12428:12469:12500:12616:12808:13188:14082:14164:14199:14412:14651:14654:15893:15910:16030:16818:17126:17234:17441:17562:17602:18380:18653:19039:19386:19509:19523:53:80:103:184:201:251:281:373:566:681:704:860:942:946:1015:1164:1167:1261:1348:1394:1660:1724:1809:2078:2625:2856:2906:2949:3209:3478:3641:3810:3848:3929:4021:4140:4142:4487:4699:4783:4790:4799:4823:4826:4958:5045:5178:5297:5337:5516:5544:5695:5722:5749:5760:6312:6331:6545:6741:6751:6761:6763:6787:6984:7032:7076:7223:7379:7706:7790:7834:7908:7981:7997:8147:8374:8806:9031:9048:9474:9494:9808:9852:9973:9974:10097:10148:10160:10171:10216:10279:10470:10623:10663:10688:10752:10797:11124:11198:11238:11277:11443:11531:11636:11751:11805:12092:12132:12176:12243:12273:12274:12281:12319:12334:12374:12391:12398:12408:12491:12526:12705:12814:12843:12877:12913:13174:13312:13346:13470:13624:13680:13747:13825:14183:14445:14765:14780:14792:14806:14816:14872:15414:15482:15546:15847:15923:15950:15980:16026:16112:16134:16148:16163:16167:16187:16220:16250:16296:16347:16418:16556:16584:16773:16841:16940:16994:17164:17220:17243:17324:17380:17458:17492:17588:17712:17720:18058:18193:18441:18528:18768:18972:19197:19274:19457:19505:19655:19853:19900:20075:20087:20237:20299:20463:20782:21133:21562:21769:21802:22616:22651:22981:23084:23423:23952:24373:24529:25154:25355:26045:26059:27903:28060:29301:40:146:196:205:253:263:297:333:385:472:506:507:541:553:578:607:631:643:671:675:677:696:715:850:918:992:1020:1060:1116:1130:1144:1187:1227:1282:1293:1361:1385:1414:1456:1475:1479:1502:1508:1620:1657:1869:1909:1934:2050:2097:2210:2240:2263:2303:2338:2347:2427:2460:2577:2580:2686:2702:2711:2720:2734:2779:2825:2832:2928:2954:2974:3003:3036:3048:3085:3185:3393:3416:3462:3522:3548:3552:3566:3639:3666:3690:3764:3814:3927:3988:4006:4035:4149:4309:4460:4461:4578:4580:4659:4662:4674:4758:4812:4822:4828:4834:4837:4852:4918:5025:5043:5179:5236:5244:5290:5296:5325:5328:5331:5340:5394:5430:5435:5458:5478:5563:5568:5591:5633:5682:5796:5816:5817:5904:5945:5975:6049:6114:6219:6433:6460:6477:6494:6517:6520:6521:6549:6554:6576:6622:6663:6778:6805:6806:6895:6954:7023:7028:7053:7071:7072:7100:7107:7125:7177:7240:7251:7260:7309:7317:7386:7390:7406:7409:7680:7684:7800:7842:7876:7899:7982:7998:8017:8042:8086:8115:8236:8418:8463:8651:8706:8708:8821:8855:8917:8934:9004:9035:9057:9074:9185:9310:9316:9503:9752:9786:9791:9857:9859:9866:9890:9896:9898:9934:9942:9975:9981:9994:10046:10122:10151:10158:10167:10192:10200:10274:10276:10471:10550:10608:10645:10708:10743:10756:10757:10762:10767:10982:10994:10997:11041:11052:11061:11066:11075:11108:11123:11126:11129:11133:11143:11150:11153:11165:11213:11216:11254:11267:11270:11271:11272:11296:11325:11414:11421:11428:11439:11448:11474:11502:11527:11594:11612:11639:11717:11722:11825:12004:12010:12080:12108:12159:12184:12185:12195:12198:12221:12222:12239:12286:12288:12308:12337:12339:12344:12348:12405:12406:12415:12472:12484:12489:12493:12520:12537:12596:12643:12653:12670:12679:12684:12689:12733:12881:12927:12953:12967:12990:13011:13036:13064:13100:13107:13419:13431:13456:13459:13491:13503:13514:13556:13598:13668:13688:13699:13708:13715:13725:13742:13752:13782:13804:13814:14011:14030:14040:14094:14120:14145:14166:14372:14584:14598:14665:14687:14714:14724:14775:14842:14845:14854:14869:14916:14951:14956:14970:14974:14979:14984:15011:15062:15068:15069:15076:15106:15147:15160:15175:15234:15240:15439:15481:15492:15516:15526:15563:15633:15635:15649:15664:15833:15848:15868:15895:15900:15919:15930:15946:15949:15958:15964:15982:15984:15991:15998:16042:16056:16222:16252:16254:16260:16300:16315:16331:16373:16431:16449:16455:16457:16492:16619:16672:16724:16742:16905:16925:16934:16939:16963:16985:16998:17049:17058:17076:17154:17174:17176:17193:17342:17352:17363:17370:17385:17389:17391:17399:17437:17507:17513:17533:17572:17616:17626:17644:17670:17695:17731:17732:17733:17789:17881:17917:17939:17947:18014:18017:18030:18132:18138:18143:18164:18167:18254:18267:18271:18315:18370:18374:18391:18425:18442:18449:18482:18488:18517:18639:18649:18654:18682:18709:18750:18802:18842:18850:18883:19049:19056:19057:19059:19071:19103:19229:19259:19315:19351:19376:19387:19388:19423:19424:19454:19497:19541:19573:19609:19621:19637:19693:19713:19729:19774:19820:19827:19836:19860:20061:20166:20202:20249:20269:20339:20410:20411:20470:20471:20505:20519:20520:20706:20748:20756:20785:20839:20875:20893:20911:20965:21014:21072:21136:21190:21252:21258:21329:21349:21368:21422:21483:21498:21500:21504:21510:21536:21610:21630:21667:21687:21938:22026:22053:22068:22073:22191:22202:22266:22323:22504:22561:22568:22658:22696:22734:22827:22863:22948:23022:23059:23167:23276:23343:23405:23478:23543:23549:23550:23664:23673:23766:23780:23812:23841:23861:23904:23939:24005:24014:24282:24310:24324:24370:24432:24490:25013:25145:25161:25216:25405:25442:25489:25540:25589:25632:25828:25976:26010:26030:26206:26250:26331:26342:26545:26555:26621:26658:26694:26924:27182:27235:27278:27675:27718:27738:27933:27999:28033:28297:28448:28540:28977:29236:29400:29408:29824:30051:30874:31087:31768:31780:32165:32397:32429:32737 -1:120:9:170:78:148:125:38:127:119:124:75:128:71:126:4:39:15:99:201:43:83:3:149:133:8:16:60:85:90:289:174:168:13:335:21:166:1:102:59:10:80:14:108:56:5:20:25:82:165:105:88:22:151:358:396:18:12:355:76:44:157:11:7:40:52:154:359:32:142:123:304:404:364:57:91:290:111:180:398:2:26:397:454:303:403:23:109:100:302:116:478:94:428:196:275:48:448:17:54:427:104:122:101:300:362:79:339:360:230:81:107:179:376:137:138:93:401:31:51:113:134:147:194:198:375:429:374:96:131:163:447:152:182:186:452:184:363:455:185:278:371:95:98:135:145:156:215:434:24:28:33:87:132:171:208:114:442:30:86:136:153:167:381:61:369:139:188:457:144:146:209:241:53:141:143:162:332:42:47:84:402:449:6:29:89:112:121:160:203:239:394:487:204:207:228:240:460:479:41:46:62:92:129:130:181:192:233:242:294:298:322:384:411:432:458 -1:2:1:3 -1:17:73:43:135:23:110:21:25:78:80:172:30:74:189:101:52:183:102:113:42:7:51:56:114:142:2:55:132:192:15:44:20:140:60:70:120:177:212:46:69:167:32:45:91:170:228:11:33:68:143:27:163:9:61:67:149:210:18:34:176:71:19:50:54:150:171:225:104:116:123:125:53:98:134:234:35:58:161:14:118:209:322:29:36:96:155:41:124:185:85:175:28:117:133:1:62:162:323:31:49:76:97:407:77:144:218:398:130:139:157:164:193:8:10:145:324:410:103:194:405:38:79:99:12:75:127:146:112:95:119:138:173:341:13:86:89:126:190:401:417:39:63:90:121:233:414:83:197:232:6:72:94:131:178:115:129:340:137:154:168:106:47:66:152:174:397:4:57:5:93:179:214:128:208:403:65:105:399:418:166:400:88:184:223:141:217:243:244:409:412:122:153:180:206:404:107:402:449:59:454:191:408:448:451:64:84:136:147:481:479:450:455:169:220:24:81:100:219:480:188:165:92:3:216:283:182:204:284:496:156:221:22:82:108:160:495:499:492:494:87:151:148:26:211:485:40:222:502:497:498:203:493:37:224 [1:1] [1:1] -1:3:1:2 [2:12] -1:0:3:2:1 [48:63.5] [1:18] [1.1000000000000001:699.89999999999998] [362:600] [-36:40] -1:120:127:38:9:125:170:148:119:78:124:128:71:75:43:99:149:201:15:3:39:4:83:16:13:85:59:90:102:126:1:166:168:8:335:133:174:20:60:25:289:10:21:14:56:108:165:80:82:5:105:151:12:18:22:157:44:7:154:76:88:396:40:358:11:355:359:57:52:142:32:290:123:304:404:91:275:26:364:2:398:196:180:23:17:116:454:54:100:339:94:109:111:428:397:302:427:48:303:79:104:478:362:374:375:101:376:51:122:230:300:403:448:81:137:134:371:452:96:135:138:163:360:31:93:107:113:145:147:401:95:131:429:434:447:114:156:179:198:30:153:171:182:186:194:24:33:98:167:184:208:363:6:87:152:215:278:185:442:455:457:86:132:136:141:188:369:146:28:42:139:190:402:89:112:203:209:394:46:162:204:207:332:432:460:479:29:47:58:61:144:242:268:322:449:19:34:53:84:92:121:159:192:205:241:297:315:380:407:411:441 -1:2:1:3 -1:73:17:43:110:21:23:135:78:25:30:80:101:172:113:142:42:55:102:56:7:74:189:52:212:2:70:132:177:192:20:51:167:44:60:114:140:68:120:183:15:33:150:176:11:34:45:67:18:46:69:143:134:163:9:71:91:170:41:61:104:210:225:228:27:50:149:234:19:32:209:53:98:125:54:171:49:116:161:36:118:123:124:28:76:117:175:8:29:58:62:96:322:14:35:103:130:144:155:162:323:85:146:157:407:31:77:139:145:133:185:405:1:10:97:112:164:194:75:127:38:119:193:12:218:79:95:398:138:190:410:6:39:63:90:99:121:173:197:13:126:401:86:131:324:115:137:154:232:341:414:417:72:89:178:94:47:129:168:233:66:340:65:106:152:166:174:179:208:57:88:128:214:397:122:217:4:5:83:206:153:93:105:223:403:412:84:180:400:409:418:141:184:59:399:402:243:244:451:136:147:404:449:191:107:448:24:188:408:454:455:64:219:81:450:479:165:169:216:220:481:3:100:156:221:480:82:87:160:182:204:22:92:26:40:108:151:495:499:283:284:494:496:502:37:148:222:485:203:492:497:211:215:224:470 [1:18] [1:8] [1:18] -1:2:1:0:3 [2:11] -1:0:1:2:3 [48:63] [54.299999999999997:295.89999999999998] -1:0:1:3:5:11:6:13:10:14:2:9:4:16:15:18:7:12:8:17:19:21:20:25 [1:18] [1.2:854.89999999999998] [372:596] [-36:38] -1:120:125:38:127:9:170:128:119:201:148:124:4:43:71:75:78:168:149:39:83:99:126:174:166:3:60:133:15:90:8:13:85:25:21:56:1:20:16:59:289:335:82:102:108:14:10:5:165:105:22:80:151:157:44:12:88:18:154:396:358:76:142:57:7:123:52:11:355:32:290:40:91:275:196:304:359:2:404:23:100:180:364:398:26:111:17:116:79:109:94:427:302:122:376:104:339:397:230:478:194:54:81:184:374:48:86:93:163:303:371:428:454:101:137:452:51:98:138:300:403:278:362:31:96:131:147:186:107:375:448:198:113:185:208:360:434:24:30:114:145:156:429:33:132:152:215:28:95:135:153:167:209:487:6:141:171:182:188:402:42:87:134:136:179:241:369:394:442:457:29:47:58:203:204:363:401:61:144:162:190:207:322:455:84:92:112:121:139:173:192:242:381:27:34:41:46:64:89:130:160:161:266:282:295:332:407:411 -1:1:2:3 -1:73:43:17:23:30:110:101:21:74:78:25:135:172:55:142:192:113:56:70:102:7:2:212:20:42:132:177:51:52:80:150:176:44:60:189:68:114:120:69:134:11:33:34:61:67:167:15:183:9:41:18:140:27:45:46:143:53:98:149:163:210:225:234:49:50:54:104:19:71:91:117:130:36:96:170:209:32:123:162:228:58:145:175:8:118:125:161:171:28:29:62:76:124:157:322:407:116:144:31:35:164:13:112:155:14:77:97:103:127:185:193:405:10:75:133:194:323:1:85:139:146:12:79:95:119:63:218:6:154:398:138:86:90:121:126:173:190:414:72:38:39:137:197:324:341:410:47:168:178:232:65:122:131:401:89:99:94:106:166:179:233:57:66:128:152:340:88:214:115:129:217:83:84:174:208:180:223:397:4:5:153:206:402:417:147:141:403:409:93:105:216:244:412:418:24:219:400:184:59:136:188:191:399:243:107:449:451:3:165:169:182:404:81:100:454:455:82:87:448:221:64:92:156:220:479:40:204:408:450:26:160:480:22:481:108:151:222:283:499:224:495:284:494:496:502:37:148:203:211:215:485:109:477:492 [1:18] [1:8] [1:18] -1:1:2:0:3 [2:11] -1:0:1:3:2 [48:63.5] [54.200000000000003:310.10000000000002] -1:0:2:3:5:4:8:1:14:9:10:11:17:16:12:6:15:19:13:7:20:18:21 [1:18] [1.1000000000000001:790] [372:594] [-44:42] -1:9841:7513:8068:12931:1475:1758:6793:7170:7177:7186:7834:8659:9012:10129:10681:11520:13853:15060:18045:19325:23766:53:1067:1661:1733:2078:2297:2734:2845:3055:3289:3481:3762:4580:6776:7051:7214:9036:9188:9806:9814:10279:11006:11388:11409:11473:11607:11630:12108:12513:12879:13261:13392:13448:13456:13486:13555:13772:13834:14735:14832:15011:15910:16708:17051:17257:17519:17644:18062:18127:18447:19056:19292:19549:19830:20338:23441:27917:307:409:527:544:564:646:671:832:834:1129:1235:1282:1285:1361:1456:1555:1583:1642:1847:1873:2165:2684:3330:3384:3540:3693:3756:3803:3953:3994:4078:4128:4140:4441:4568:4671:4705:4758:4834:4897:4941:4947:5043:5174:5337:5360:5377:5522:5804:5826:6050:6331:6478:6616:6740:6762:6817:6897:6900:6941:6942:7036:7206:7271:7311:7421:7762:7877:7945:7963:8032:8113:8132:8141:8366:8391:8630:8893:8917:9086:9103:9605:9815:9859:9905:9983:9990:10049:10054:10072:10158:10173:10241:10292:10647:10720:10748:10781:11075:11097:11236:11292:11387:11489:11612:11722:11961:12010:12025:12153:12157:12252:12291:12297:12409:12459:12671:12684:12720:12808:12836:12913:13034:13080:13095:13097:13123:13199:13385:13453:13644:13668:13673:14537:14584:14701:14724:14845:14899:14915:14963:15033:15097:15107:15209:15557:15899:15956:15984:16074:16165:16243:16350:16455:16555:16753:17009:17030:17097:17129:17178:17220:17299:17323:17452:17685:17724:17804:18019:18132:18190:18401:18486:18848:18879:18882:19352:19470:19480:19541:19614:19671:20143:20190:20664:20752:20799:20855:21142:21305:21330:21400:21643:21954:22056:22334:22369:22421:22548:22983:24001:24887:27366:51:104:141:218:254:281:300:309:333:470:477:494:500:533:551:568:587:590:605:607:624:631:632:675:679:680:714:742:771:778:853:894:910:922:940:942:996:1145:1164:1189:1214:1319:1423:1451:1466:1473:1502:1543:1578:1587:1625:1665:1666:1694:1768:1789:1809:1849:1912:2011:2067:2109:2246:2346:2507:2512:2549:2694:2737:2796:2814:2825:2834:2856:2974:3146:3209:3337:3345:3357:3365:3393:3399:3428:3466:3582:3637:3752:3767:3781:3825:3839:3858:3887:3888:3910:3937:4080:4138:4146:4173:4206:4348:4357:4456:4492:4573:4662:4679:4760:4841:4865:5041:5080:5179:5225:5273:5436:5503:5517:5531:5569:5596:5603:5609:5639:5658:5681:5745:5795:5843:6046:6172:6173:6201:6312:6400:6407:6463:6471:6522:6545:6571:6580:6655:6662:6679:6774:6780:6903:6975:7055:7102:7164:7171:7223:7251:7374:7376:7386:7492:7636:7793:7800:7830:7854:7871:7898:7966:7980:8015:8087:8119:8134:8146:8234:8403:8418:8425:8578:8583:8754:8790:8807:8828:8855:8895:8941:8964:8967:9028:9168:9752:9768:9798:9807:9808:9809:9843:9857:9866:9890:9904:9939:9973:9975:9976:10048:10052:10075:10087:10094:10117:10122:10125:10225:10264:10303:10558:10573:10594:10612:10644:10645:10672:10678:10685:10687:10752:10757:10758:10774:10895:11023:11054:11074:11081:11152:11163:11169:11186:11213:11262:11277:11302:11321:11322:11349:11382:11398:11426:11427:11435:11456:11543:11580:11594:11598:11622:11676:11711:11751:11774:11805:11874:11883:11914:12043:12117:12124:12162:12187:12197:12230:12238:12264:12300:12322:12383:12408:12414:12432:12469:12493:12511:12532:12611:12627:12680:12686:12711:12716:12726:12738:12745:12843:12882:13004:13010:13023:13051:13068:13074:13163:13172:13174:13227:13345:13360:13367:13374:13384:13387:13426:13431:13503:13507:13536:13560:13570:13585:13586:13652:13682:13711:13716:13729:13747:13814:14037:14082:14100:14120:14123:14172:14185:14191:14204:14269:14272:14406:14438:14483:14513:14564:14615:14658:14665:14670:14671:14723:14753:14776:14786:14801:14827:14844:14852:14860:14872:14881:14916:14924:14931:14967:14985:15019:15034:15040:15042:15092:15124:15125:15165:15169:15174:15195:15208:15229:15234:15239:15375:15410:15444:15521:15645:15691:15760:15769:15772:15793:15828:15843:15847:15895:15901:15905:15950:15988:16054:16069:16110:16114:16192:16213:16220:16311:16319:16378:16402:16418:16427:16491:16514:16523:16584:16585:16596:16608:16673:16773:16787:16931:16934:16944:16945:16992:17012:17027:17029:17041:17048:17156:17158:17261:17265:17278:17305:17307:17354:17364:17386:17389:17402:17423:17434:17442:17449:17475:17513:17564:17602:17610:17616:17626:17635:17673:17692:17730:17731:17740:17774:17797:17869:17906:17915:17975:18006:18017:18033:18044:18049:18063:18067:18084:18112:18116:18119:18145:18171:18174:18219:18232:18270:18273:18382:18407:18413:18449:18466:18476:18497:18527:18675:18722:18732:18760:18764:18899:19014:19073:19137:19234:19236:19241:19256:19299:19319:19388:19403:19424:19437:19478:19481:19489:19516:19536:19612:19634:19652:19710:19716:19722:19727:19737:19943:19977:20086:20173:20299:20313:20327:20340:20404:20426:20471:20496:20539:20546:20547:20595:20598:20608:20628:20656:20688:20721:20757:20763:20783:20798:20874:20879:20932:20973:20991:21059:21073:21128:21192:21212:21223:21228:21232:21233:21365:21436:21437:21493:21520:21522:21602:21625:21642:21929:22055:22098:22112:22116:22139:22194:22201:22225:22235:22275:22385:22405:22455:22469:22594:22615:22652:22693:22726:22797:22812:22960:23330:23423:23457:23478:23713:23871:23910:23928:23972:24032:24054:24280:24352:24427:24452:24465:24625:24626:24699:24760:25067:25291:25499:25553:25572:25586:25622:25627:25928:25943:26236:26335:26371:26613:26690:26712:26741:26855:26930:26965:27050:27242:27306:27336:27521:27582:27603:27732:27740:27777:27857:27941:28130:28161:28234:29650:29845:30612:31308:31329:31735:31778:32067:32211 -1:148:120:38:78:170:9:127:119:201:75:124:128:125:71:15:39:43:126:99:13:166:60:83:4:149:16:102:168:59:90:289:174:85:1:335:3:8:133:56:14:25:21:151:10:80:108:5:22:105:20:165:82:12:396:355:157:11:7:88:76:154:358:18:142:57:359:364:290:304:44:404:32:40:91:26:52:123:2:23:111:454:116:398:427:428:180:17:122:94:275:109:362:397:79:448:48:137:303:478:138:54:100:196:300:403:374:101:230:360:24:302:447:31:339:81:179:375:452:93:30:33:104:107:429:371:152:153:194:198:96:147:171:188:215:455:134:135:182:185:186:442:28:136:163:156:208:369:95:184:278:401:402:47:87:139:363:51:86:113:132:434:98:114:141:145:457:131:167:143:209:89:144:146:376:381:487:53:241:315:332:394:29:42:46:61:203:204:6:63:162:190:41:207:233:380:449:34:58:84:92:110:130:187:223:231:242:268:322:346:408:411:432:441:460:479 -1:2:1:3 -1:73:110:2:135:17:21:52:25:189:60:78:113:42:15:18:20:101:41:134:51:56:91:183:44:23:55:172:9:30:74:139:45:46:167:27:69:14:33:43:98:7:67:116:177:192:61:86:120:170:171:11:36:54:142:212:323:32:80:102:104:140:49:127:149:193:208:70:96:173:210:225:71:79:85:218:163:53:228:322:417:62:144:28:130:234:1:324:10:106:114:117:161:209:99:103:118:164:232:47:57:143:407:34:35:88:138:146:152:176:197:400:6:8:39:123:124:126:154:19:29:131:132:157:97:125:155:168:77:194:31:162:83:90:185:398:12:50:76:105:410:72:93:95:115:121:128:145:150:233:129:175:401:403:13:75:174:179:340:133:166:397:63:408:119:5:58:405:59:68:402:404:89:191:409:4:178:243:38:112:412:137:153:454:94:107:66:449:65:214:223:188:414:206:341:180:184:418:122:244:455:141:190:399:84:147:217:221:220:448:480:169:451:3:479:64:450:82:87:92:108:284:24:100:136:182:216:219:504:485:204:481:495:40:477:81:283:22:496:156:500:211:497:148:165:492:494:222:26:224:502:37:160:151:203 [1:2] [2:2] -1:2:1:3 [2:11] -1:0:3:2:1 [48:63.5] [1:18] [1.1000000000000001:999.89999999999998] [362:999] [-29:48] -1:170:148:120:38:119:78:127:201:128:43:9:124:125:71:75:99:60:4:166:39:126:149:16:15:56:8:59:1:335:174:133:3:168:13:289:83:102:85:21:20:14:90:25:165:105:10:5:22:80:82:108:151:12:157:88:355:18:76:57:44:7:358:142:396:11:52:154:404:26:123:359:2:40:290:180:91:111:116:17:23:32:364:304:397:122:196:275:398:428:94:101:109:54:100:478:48:230:362:303:427:454:448:137:302:371:194:138:300:374:31:403:79:93:339:360:376:24:28:33:153:369:375:134:135:179:208:401:30:51:81:96:114:147:171:381:447:95:104:107:152:156:163:198:455:98:132:136:184:209:278:429:113:185:58:145:167:182:203:215:86:139:144:363:402:434:442:53:204:487:47:87:141:146:188:241:6:89:186:411:452:29:42:84:143:192:268:332:394:457:41:46:92:112:129:160:384:449:460:479:27:34:61:130:131:162:190:207:234:266:322:407:409:432 -1:2:1:3 -1:73:2:110:135:52:25:21:113:60:78:101:17:18:189:41:42:134:20:23:9:51:183:27:56:139:172:30:15:45:74:55:69:167:177:33:46:98:142:43:170:67:192:44:91:61:120:36:104:7:96:127:171:54:173:193:208:212:11:34:49:86:140:323:14:32:80:116:149:225:234:71:85:163:218:210:53:70:232:417:79:132:144:161:209:10:57:62:99:102:324:106:143:154:322:114:130:28:117:118:123:164:228:1:125:138:157:407:126:197:6:19:29:47:105:152:176:233:35:39:77:88:146:194:72:103:121:124:150:179:8:75:131:145:155:168:400:12:162:31:50:97:115:175:398:13:95:128:403:76:401:58:133:166:174:410:68:185:340:59:63:90:112:178:4:5:83:93:38:129:89:94:119:153:397:408:412:137:191:402:107:405:188:454:243:65:66:180:414:449:214:404:122:223:409:84:141:455:190:341:169:184:206:221:147:244:399:3:82:418:108:219:480:24:217:87:92:220:216:64:136:451:479:100:182:284:448:40:81:204:504:156:450:477:481:485:495:496:224:283:500:22:26:165:211:222:494:148:497:37:151:160:492:502:109 [1:18] [1:8] [1:18] -1:2:1:0:3 [2:10] -1:0:2:3:1 [49:63.5] [53.899999999999999:306.80000000000001] -1:0:7:1:4:10:8:3:11:2:16:12:9:6:14:13:5:15:20:17:21:18:19 [1:18] [1.1000000000000001:760.29999999999995] [372:584] [-41:48] -1:120:9:148:127:38:119:128:78:170:125:75:43:124:71:201:149:99:166:4:8:174:126:16:39:15:83:168:1:13:133:60:56:289:3:20:21:14:85:90:59:102:10:335:5:82:105:22:165:25:108:151:80:157:52:76:12:396:18:44:11:88:123:355:359:7:57:142:290:154:358:2:116:32:17:180:40:404:101:91:275:304:23:364:100:111:398:26:48:94:122:374:79:303:194:109:54:81:196:137:300:478:31:454:138:163:339:397:153:230:428:447:184:185:362:208:209:371:376:182:302:24:33:95:96:107:141:30:51:93:114:171:179:360:427:448:58:401:28:134:147:198:98:113:132:135:146:156:203:363:375:381:403:429:53:278:369:86:152:452:87:104:136:139:144:188:204:434:441:457:112:145:167:186:190:442:455:42:47:130:162:207:215:402:460:6:27:29:46:61:89:110:121:129:131:241:332:487:34:65:66:84:97:160:273:285:315:380:384:393:394:432 -1:2:1:3 -1:73:2:52:78:110:135:21:25:101:113:60:20:51:134:189:18:41:42:172:17:69:139:45:9:27:30:55:177:15:23:56:74:167:33:183:43:44:127:7:192:34:98:142:193:67:170:61:104:208:46:91:225:49:80:54:71:85:323:11:149:163:171:173:212:53:70:96:140:36:86:120:234:79:154:210:32:161:14:99:123:164:218:29:105:132:144:197:232:10:28:57:116:118:130:324:62:125:138:150:417:19:75:77:88:102:114:194:209:47:117:121:12:35:131:143:145:146:176:233:407:72:124:152:155:162:31:106:126:157:175:179:6:8:39:68:95:97:168:228:13:50:58:76:103:166:322:403:1:174:401:128:185:63:59:90:112:115:398:400:410:133:153:402:4:5:129:178:191:89:93:94:107:119:137:180:188:84:66:83:340:405:412:38:122:414:65:221:3:190:223:397:141:214:243:408:449:454:92:206:24:82:169:341:409:108:216:404:136:147:219:40:244:184:418:455:87:217:399:479:81:182:220:100:204:64:22:156:284:480:448:450:224:504:26:165:451:485:495:496:211:37:222:283:477:481:500:148:151:494:160:109:203:493:497 [1:18] [1:8] [1:18] -1:1:2:0:3 [2:10] -1:0:1:2:3 [49:63.5] [54.700000000000003:304.30000000000001] -1:0:3:1:9:14:4:5:2:10:15:11:7:6:18:12:16:20:21:8:17:13:25:23 [1:18] [1.1000000000000001:944.5] [370:586] [-40:38] -1:9086:11268:3055:300:6331:12777:14776:942:2695:3756:4898:5517:7374:7871:10536:13556:13602:15633:15923:15980:21190:855:2558:2684:2814:3645:3825:3888:4701:4944:5184:5304:5334:7271:7427:8315:9881:9910:9999:10573:11050:11130:11165:11321:11810:12052:12493:13414:13448:13660:14049:14324:14820:14915:14926:15092:15107:15479:15545:15763:16139:16449:16546:16608:17140:17177:17224:17256:19491:19676:20367:20601:22421:24507:25161:197:227:341:506:669:671:675:823:1001:1229:1376:1475:1484:1502:1620:1723:1847:2580:2694:2773:2849:3146:3291:3481:3932:3937:4050:4079:4080:4084:4120:4171:4367:4659:4662:4764:4828:4993:5252:5375:5412:5436:5478:5775:6087:6504:6520:6545:6661:7036:7107:7187:7214:7336:7386:7416:7455:7762:7775:7834:8114:8403:8426:8713:9042:9643:9752:9857:10029:10072:10222:10277:10647:10708:10749:10762:10938:11041:11113:11264:11313:11322:11377:11427:11557:11579:11728:11961:12002:12109:12337:12383:12406:12415:12705:12953:12963:12968:13068:13164:13226:13355:13360:13378:13431:13552:13638:13677:13736:13741:14203:14205:14224:14236:14452:14648:14779:14793:14816:14845:14913:14965:15012:15024:15579:15675:15766:15895:15901:15930:15936:15941:16220:16278:16974:17122:17125:17126:17254:17278:17353:17434:17691:18043:18062:18151:18266:18272:18327:18440:18458:18747:19233:19334:19370:19693:19722:19811:19860:19873:19939:20129:20395:20416:20732:21058:21577:21735:22498:22656:23124:23144:23264:23478:23754:23843:24576:25471:25503:29588:31114:67:87:94:128:141:291:333:385:388:417:500:515:522:535:605:607:612:624:676:702:798:817:909:970:979:992:1027:1129:1132:1264:1293:1309:1318:1348:1381:1385:1451:1543:1614:1661:1668:1768:1883:1953:2100:2159:2347:2439:2488:2553:2577:2588:2612:2625:2642:2725:2779:2800:2832:2845:2906:3133:3283:3330:3332:3382:3384:3385:3388:3552:3566:3637:3641:3644:3650:3664:3722:3742:3752:3762:3813:3907:3983:3994:4097:4129:4164:4288:4347:4425:4671:4722:4746:4755:4760:4823:4947:5014:5043:5080:5174:5206:5225:5330:5352:5377:5419:5420:5499:5503:5522:5544:5568:5597:5632:5647:5738:5791:5795:5843:6046:6084:6173:6257:6321:6350:6381:6402:6522:6525:6616:6634:6776:6793:6892:6897:6917:6961:7007:7023:7042:7069:7079:7100:7121:7128:7157:7159:7171:7223:7232:7270:7296:7308:7309:7341:7360:7608:7695:7771:7854:7947:7997:8014:8042:8044:8066:8068:8196:8330:8507:8636:8820:8863:8934:8985:9030:9035:9047:9101:9103:9144:9149:9156:9187:9188:9274:9281:9308:9531:9614:9688:9735:9753:9808:9809:9849:9865:9892:9902:9949:9990:9994:10048:10059:10103:10123:10124:10158:10185:10200:10274:10276:10302:10558:10575:10646:10687:10693:10704:10713:10743:10746:10756:10769:10773:10793:11005:11024:11076:11078:11080:11104:11110:11128:11133:11166:11176:11193:11194:11236:11260:11270:11288:11291:11370:11384:11388:11421:11438:11443:11452:11473:11489:11584:11593:11598:11612:11621:11622:11658:11709:11772:11789:11799:11992:12040:12047:12078:12140:12181:12184:12185:12199:12221:12244:12273:12286:12296:12308:12334:12405:12432:12460:12462:12535:12621:12643:12671:12673:12674:12680:12688:12689:12722:12793:12856:12866:12877:12888:12891:12919:12922:12924:12931:12941:12942:13034:13090:13092:13097:13100:13188:13263:13285:13346:13384:13437:13453:13477:13507:13514:13527:13598:13624:13627:13647:13682:13688:13695:13716:13757:13771:13774:13775:13783:13788:13860:13875:13975:14075:14096:14113:14133:14172:14227:14260:14309:14342:14353:14373:14376:14408:14444:14470:14583:14584:14587:14599:14610:14662:14666:14773:14862:14865:14904:14922:14927:15004:15011:15018:15033:15050:15082:15093:15124:15142:15148:15182:15195:15218:15227:15240:15241:15327:15482:15489:15500:15525:15589:15616:15625:15645:15649:15746:15793:15812:15851:15883:15956:15986:15990:15996:15997:16008:16012:16022:16054:16056:16061:16077:16084:16085:16106:16134:16137:16144:16167:16174:16213:16222:16242:16329:16340:16351:16401:16455:16501:16509:16573:16773:16881:16909:16911:16932:16934:16940:16945:16958:16985:16990:16998:17022:17030:17031:17047:17048:17050:17056:17069:17114:17180:17188:17205:17208:17249:17259:17260:17302:17305:17318:17323:17364:17462:17483:17484:17529:17592:17602:17616:17653:17712:17726:17804:17823:17971:18046:18049:18167:18236:18252:18268:18335:18345:18367:18370:18386:18425:18462:18503:18515:18521:18526:18534:18623:18648:18688:18703:18768:18848:18862:18872:18900:18923:18972:19089:19096:19137:19212:19219:19234:19235:19253:19264:19376:19397:19401:19437:19470:19481:19497:19518:19539:19571:19580:19673:19697:19716:19780:19928:19943:20064:20203:20249:20300:20314:20361:20377:20394:20460:20488:20516:20547:20582:20632:20634:20657:20667:20730:20751:20799:20818:20847:20922:20928:21031:21105:21228:21243:21291:21396:21428:21564:21591:21596:21619:21646:21664:21696:21714:21736:21814:21862:21875:21946:21959:21984:22068:22128:22144:22194:22217:22266:22282:22313:22574:22645:22860:22893:22978:22981:23008:23028:23031:23053:23309:23326:23383:23425:23441:23498:23550:23662:23728:23751:23944:24010:24071:24280:24492:24554:24600:24605:24609:24623:24706:24930:24942:25170:25204:25225:25279:25292:25347:25393:25401:25422:25442:26047:26101:26267:26268:26306:26350:26566:27688:27947:28047:28127:28358:28795:29066:29463:29752:29876:31797:32421:32869 -1:120:9:71:148:78:170:119:125:38:127:15:128:124:126:99:201:83:3:166:4:75:39:16:133:168:60:59:43:90:289:335:8:149:1:102:21:13:56:85:174:5:22:14:25:108:20:82:10:151:80:105:165:88:12:396:44:18:358:355:157:154:290:57:76:91:142:52:364:11:359:7:123:26:32:40:304:2:116:180:404:23:398:428:111:196:275:397:454:94:122:303:427:478:109:403:448:101:79:300:100:17:54:302:339:48:104:230:360:374:208:362:81:113:138:147:179:376:137:447:51:182:87:278:375:31:163:455:28:107:131:363:30:33:145:153:186:24:188:401:429:132:136:452:198:215:434:86:93:134:402:487:98:152:167:171:184:369:371:442:96:162:194:411:53:114:156:42:95:139:185:203:332:457:130:135:144:190:207:89:141:204:209:268:460:479:160:241:381:394:41:92:129:227:34:45:46:58:84:112:143:146:233:246:297:309:322:344:380:441:64:73:103:121:192:263:285:432:449 -1:2:1:3 -1:73:27:17:21:101:30:2:52:14:172:78:135:23:70:9:189:7:15:51:55:42:104:134:102:80:161:212:67:86:91:110:209:44:43:113:130:197:323:18:46:60:177:228:234:146:171:25:114:183:20:32:167:31:142:155:145:11:53:62:77:117:139:34:49:50:54:95:103:162:164:398:85:193:210:324:19:56:99:176:185:208:8:10:36:45:96:123:140:41:68:69:74:83:120:143:163:192:61:116:127:149:225:106:144:340:132:170:79:124:129:218:6:33:118:128:131:175:410:138:28:125:75:98:322:57:76:409:58:152:154:12:47:97:5:71:121:407:1:451:35:94:119:178:194:233:29:89:341:39:232:405:13:59:126:168:173:179:157:401:206:402:153:408:115:38:105:397:4:66:133:414:417:88:93:174:223:244:150:166:191:65:190:404:112:403:90:243:412:180:63:72:418:122:107:399:455:479:184:400:454:147:448:136:449:137:188:214:221:100:217:3:108:64:220:82:141:216:284:480:22:84:92:156:169:495:148:165:204:481:182:24:40:87:151:450:283:496:497:502:219:492:222:477:485:499:26:81:494:504:203:493:498:500:37 [2:3] [3:3] -1:2:1:3 [2:12] -1:0:3:1:2 [48:63.5] [1:18] [1.1000000000000001:737] [364:638] [-30:54] -1:9:120:127:148:71:119:170:78:125:38:201:128:4:15:39:75:124:126:166:149:16:56:43:99:168:3:83:21:13:90:8:60:59:1:133:174:335:102:22:82:289:85:14:25:5:151:20:105:108:80:10:12:165:88:44:396:18:154:157:290:358:11:76:7:57:142:52:91:2:32:355:359:123:304:116:40:364:404:180:111:275:303:79:94:101:26:398:23:109:196:17:138:397:427:100:230:428:454:300:374:478:48:122:208:54:104:137:360:81:302:448:51:339:376:452:278:403:455:179:185:362:447:28:30:188:375:31:113:134:145:182:194:24:86:93:107:147:163:184:215:87:96:153:198:434:95:98:131:136:186:429:42:114:162:167:371:401:457:33:139:141:171:442:53:89:135:381:34:58:144:152:207:209:402:47:112:129:203:241:322:332:344:363:369:411:27:29:41:61:156:240:487:6:46:84:92:117:130:132:146:204:233:268:432:441:460:74:110:160:181:190:199:239:299:305 -1:2:1:3 -1:73:21:27:101:17:30:2:172:52:14:78:135:23:7:189:70:51:134:9:104:161:15:42:55:110:209:212:102:130:197:113:80:86:43:44:234:18:46:67:177:228:323:91:95:176:60:103:34:53:114:145:32:54:142:167:185:25:31:36:139:146:155:171:20:41:85:127:162:192:74:149:163:164:19:61:96:117:140:45:50:69:398:8:10:11:49:62:77:123:132:183:193:210:68:124:208:218:106:116:144:225:56:79:83:118:170:99:175:6:33:98:120:128:324:340:143:57:129:131:28:121:125:154:5:12:58:138:410:76:152:407:47:71:409:29:89:94:178:13:59:97:194:322:35:119:168:179:341:126:1:206:233:39:75:173:157:232:402:405:105:166:451:153:65:401:88:112:115:133:4:174:38:66:93:190:223:122:150:191:408:414:90:180:243:244:397:63:72:417:479:403:107:412:418:147:400:404:3:136:184:188:221:399:137:214:100:108:217:64:82:454:84:141:169:448:455:216:449:22:92:148:156:182:165:495:24:204:220:40:87:151:284:450:497:481:26:219:222:283:502:81:480:496:504:492:494:203:477:485:499:498:37:48:224 [1:18] [1:8] [1:18] -1:2:1:0:3 [2:12] -1:0:1:3 [48:63.5] [54.100000000000001:302.89999999999998] -1:0:7:1:11:3:8:12:5:4:13:2:6:15:9:20:10:14:17:18:19:16:21 [1:18] [1.1000000000000001:778.20000000000005] [372:614] [-30:48] -1:120:127:38:9:170:148:128:119:125:4:71:201:78:124:75:99:15:43:166:126:168:39:85:16:83:149:1:90:60:3:13:59:174:8:20:21:56:133:289:22:102:82:10:151:25:165:108:335:14:12:105:5:80:154:18:44:88:157:57:396:11:52:359:7:142:76:123:290:196:358:2:32:116:91:40:355:404:23:275:304:180:364:94:26:79:109:398:17:303:374:54:101:100:111:122:339:137:376:208:230:360:427:48:300:397:428:31:81:104:138:184:371:375:51:87:96:134:182:302:362:447:478:113:194:24:42:98:107:141:163:179:188:403:434:448:454:95:131:153:167:198:215:33:145:147:171:278:86:136:162:429:455:28:30:34:53:58:93:114:139:186:203:363:401:452:89:135:185:209:411:442:487:27:84:110:152:156:381:47:112:130:160:207:332:369:432:19:144:173:192:199:268:402:407:420:457:6:45:46:61:121:129:132:190:204:239:240:241:285:322:384:394:441:449 -1:2:1:3 -1:73:21:101:27:17:172:2:78:30:52:14:135:51:55:212:70:7:23:189:9:209:15:42:104:197:34:134:113:142:161:43:44:67:110:130:145:177:228:53:102:176:95:18:20:25:41:60:86:91:80:103:192:234:32:61:114:139:31:46:54:323:36:85:146:162:164:171:8:62:127:167:19:124:155:49:50:68:69:79:106:123:140:163:10:56:132:149:218:11:144:185:225:6:45:74:99:117:175:118:398:96:116:193:154:208:210:33:83:98:121:128:12:77:138:170:57:28:120:131:143:5:58:129:178:183:324:340:13:97:35:39:71:76:119:168:194:29:59:125:206:94:105:152:410:1:47:75:89:173:179:233:322:112:126:153:401:409:133:407:65:157:232:341:451:4:190:166:174:405:191:66:72:402:150:180:38:122:223:414:417:3:63:88:93:115:188:90:397:400:404:84:147:217:244:479:82:221:243:412:108:399:403:408:100:107:137:418:169:182:184:455:64:92:136:141:214:216:454:22:165:448:156:204:449:87:148:151:24:40:495:26:219:222:284:497:502:48:81:220:450:481:480:496:224:492:499:37:203:211:494:498:160:283:477 [1:18] [1:8] [1:18] -1:2:1:0:3 [2:11] -1:0:2:1 [49:63.5] [54.299999999999997:304.89999999999998] -1:0:5:14:1:12:7:2:4:8:3:6:13:9:11:10:20:15:18:19:16:17:24 [1:18] [1.1000000000000001:881] [372:608] [-34:40] -1:1461:6729:7316:21772:22103:1362:1543:4623:6520:7170:7251:9019:12768:14724:15606:17619:18497:52:418:982:1167:1376:1508:2025:2625:2814:2821:3331:3476:3522:3566:3887:4658:5681:5695:5715:6765:7056:7076:7260:7311:7361:8500:8891:9150:10148:10239:10513:10938:11067:11267:11421:11521:12140:12288:12324:12500:12531:13006:13052:13437:13486:13843:14183:14417:14538:14650:15414:15445:15843:15910:15986:16195:16329:16418:17315:19429:19633:19715:22853:24320:24356:26053:26598:67:96:194:254:281:502:535:551:608:680:850:942:1060:1132:1159:1235:1301:1451:1479:1589:1661:1723:2236:2720:2734:2819:3191:3207:3225:3481:3552:3698:3741:4021:4122:4140:4743:4826:4945:4994:5045:5084:5217:5330:5351:5360:5544:6362:6622:6788:6815:6895:6942:7143:7198:7247:7271:7416:7568:7877:7942:8119:8330:8366:8584:8765:8811:8877:8964:9031:9065:9075:9572:9743:9836:9877:9911:9929:10017:10074:10158:10179:10226:10608:10646:10662:10797:11066:11075:11143:11161:11187:11209:11215:11291:11385:11428:11445:11704:12080:12230:12372:12375:12435:12481:12491:12616:12670:12771:12782:12965:13080:13261:13483:13537:13705:13771:13949:14094:14231:14423:14517:14537:14615:14774:14925:15035:15060:15107:15174:15487:15521:15563:15601:15812:15988:16187:16442:16460:16501:16540:16585:16724:16944:16961:17004:17129:17259:17434:17492:17506:17513:17708:17916:18018:18067:18134:18309:18764:19417:19426:19437:19481:19618:19760:19798:19946:20202:20416:20445:20782:20785:20835:20845:20935:20965:21233:21248:21258:21332:21723:21925:21982:22086:22532:22711:22719:22788:22925:22942:22989:23664:23802:23862:24336:24411:24483:24530:24887:26580:31960:44:53:103:205:248:269:285:289:300:341:494:500:607:624:669:676:681:699:851:890:946:961:967:980:1025:1077:1079:1130:1185:1225:1282:1284:1319:1356:1474:1475:1501:1537:1546:1559:1576:1585:1586:1612:1646:1648:1668:1694:1709:1913:1956:2131:2159:2165:2186:2232:2297:2332:2338:2549:2558:2670:2770:2778:2976:3169:3245:3382:3393:3499:3507:3637:3649:3656:3712:3726:3781:3803:3857:3876:3888:3893:3911:3929:3938:4022:4128:4357:4397:4573:4664:4680:4699:4705:4744:4755:4760:4790:4914:4958:4968:4998:5077:5080:5253:5304:5318:5377:5394:5458:5543:5581:5650:5658:5716:5796:5880:5892:5922:5938:6173:6243:6257:6372:6451:6460:6466:6496:6539:6666:6757:6793:6874:6943:6948:6987:7025:7079:7107:7157:7159:7177:7186:7203:7214:7249:7287:7312:7376:7397:7406:7409:7548:7695:7843:8017:8044:8067:8128:8129:8134:8403:8412:8463:8621:8706:8926:8987:9032:9101:9166:9188:9431:9514:9754:9801:9806:9859:9890:9997:10046:10052:10054:10063:10123:10129:10135:10174:10256:10261:10274:10276:10313:10320:10511:10670:10692:10747:10758:10773:10898:10979:10991:11005:11022:11040:11042:11076:11091:11111:11130:11144:11165:11171:11177:11178:11196:11216:11239:11253:11264:11268:11270:11271:11292:11322:11377:11429:11452:11467:11534:11543:11584:11594:11607:11630:11635:11749:11751:11772:11829:11964:11985:11992:12010:12027:12161:12182:12190:12224:12286:12297:12318:12335:12338:12348:12409:12411:12432:12474:12480:12493:12671:12679:12720:12757:12777:12818:12902:12913:12942:12950:13020:13033:13036:13042:13107:13133:13154:13163:13199:13213:13226:13227:13271:13384:13387:13392:13419:13431:13503:13507:13514:13524:13527:13555:13577:13579:13602:13652:13676:13694:13716:13723:13736:13767:13784:13791:13798:13803:13860:13869:13977:14037:14038:14063:14164:14195:14199:14224:14235:14352:14358:14369:14412:14419:14480:14513:14577:14583:14585:14591:14652:14696:14713:14729:14761:14792:14816:14844:14899:14926:14935:14965:14971:14972:14979:14995:15068:15079:15101:15132:15164:15223:15225:15357:15382:15479:15524:15544:15545:15548:15647:15788:15829:15836:15840:15851:15861:15889:15894:15904:15938:15958:15965:15975:15978:15995:15997:16012:16022:16119:16137:16166:16169:16222:16250:16269:16285:16296:16318:16341:16351:16414:16439:16457:16499:16509:16534:16555:16557:16609:16643:16655:16713:16806:16856:16909:16945:16985:16990:16994:17000:17007:17030:17051:17062:17102:17120:17147:17195:17196:17197:17258:17265:17304:17316:17325:17342:17382:17383:17393:17395:17412:17452:17519:17539:17555:17569:17603:17610:17626:17653:17660:17673:17681:17702:17720:17733:17740:17766:17804:17811:17990:18019:18053:18081:18189:18234:18236:18271:18304:18308:18364:18370:18391:18425:18447:18517:18538:18662:18669:18703:18769:18845:18883:18900:18919:19096:19227:19237:19244:19390:19393:19401:19458:19580:19624:19635:19641:19651:19675:19709:19868:19926:19930:19932:20061:20082:20089:20268:20290:20291:20309:20323:20409:20414:20502:20530:20609:20612:20613:20671:20687:20707:20752:20765:20792:20832:20946:21002:21003:21058:21158:21183:21192:21204:21223:21232:21295:21309:21384:21399:21432:21493:21500:21533:21559:21603:21637:21642:21770:21899:21903:21906:21914:21959:21961:22102:22114:22138:22235:22252:22330:22333:22347:22360:22368:22413:22433:22577:22656:22684:22729:22736:22746:22776:22778:22795:22857:22948:23028:23106:23110:23423:23741:23747:23749:23771:23870:24016:24311:24375:24470:24524:24618:24623:24691:24856:25360:25476:25524:25532:25568:25895:26125:26130:26357:26551:26945:27016:27182:27340:27600:27928:27969:28051:28099:28122:28201:28240:28571:28646:28676:29168:29817:29983:30016:30320:32023:32189:32534:32767 -1:120:148:9:127:170:38:124:71:125:119:78:201:166:75:15:16:128:43:3:126:99:83:39:174:1:168:4:289:60:133:102:25:335:8:56:59:85:90:21:149:13:108:10:14:151:22:20:18:165:5:80:105:82:88:154:359:355:11:358:76:290:396:52:44:12:142:304:57:157:404:91:32:7:40:26:123:364:111:196:116:398:2:180:275:428:23:109:397:138:303:17:448:478:101:362:403:137:94:100:454:54:427:360:48:302:429:122:79:96:104:147:186:374:401:376:447:81:113:51:198:31:375:442:24:182:230:339:134:208:455:107:452:33:145:179:188:371:434:153:185:95:132:141:163:278:300:457:28:139:209:86:156:215:131:171:184:381:87:93:135:152:162:194:363:369:30:114:144:411:42:136:53:121:146:167:29:47:98:160:487:89:112:282:332:380:460:129:143:203:402:6:61:84:190:204:268:285:394:441:458:479:37:64:92:117:130:181:207:233:242:297:340:384:390:492 -1:2:1:3 -1:73:17:2:27:172:43:52:135:189:70:104:18:101:113:171:15:55:42:7:20:23:91:21:36:212:60:142:25:41:51:44:14:31:74:98:192:102:118:120:78:110:9:69:177:183:30:56:61:140:46:10:134:144:53:123:228:32:67:161:6:62:225:1:96:33:114:143:145:210:11:54:149:173:197:323:34:49:167:176:162:80:130:132:133:170:50:71:155:218:77:99:341:8:12:95:234:75:76:90:185:29:85:129:139:150:322:45:97:127:154:58:146:38:116:163:5:106:115:117:124:125:232:47:68:138:208:233:89:131:157:179:209:35:39:164:13:174:190:410:103:175:93:126:324:398:407:409:28:72:105:152:402:19:121:403:417:193:112:128:178:194:414:397:94:340:153:166:412:137:59:206:4:86:405:57:79:243:400:107:119:168:214:65:408:88:217:401:418:451:141:191:63:454:479:66:244:448:64:83:449:404:108:399:92:122:180:480:184:223:87:188:220:147:156:481:100:136:455:3:24:82:204:216:283:450:148:160:169:182:219:84:221:494:26:284:22:40:499:502:151:165:211:222:495:497:498:500:81:485:496:493:37:477:203 [2:4] [4:4] -1:2:1:3 [2:11] -1:0:2:1:3 [49:63.5] [1:18] [1.1000000000000001:907.10000000000002] [344:600] [-38:46] -1:120:9:71:127:38:124:125:170:148:75:201:119:78:15:166:4:99:128:39:90:43:168:16:126:83:3:133:59:60:149:85:21:13:56:174:8:289:335:25:1:10:82:102:14:20:105:151:108:5:80:18:22:165:12:154:88:157:396:76:290:358:142:11:44:57:7:32:52:355:359:364:404:123:40:275:91:23:2:111:304:180:116:26:196:428:94:109:397:302:374:31:339:398:81:96:194:448:79:303:427:454:48:403:54:101:478:17:104:376:100:186:230:33:137:138:184:300:51:113:362:156:360:371:401:122:163:429:447:95:131:145:182:198:107:132:136:179:188:208:375:442:24:135:147:457:98:153:185:455:28:134:215:278:434:452:141:209:487:58:87:139:171:369:30:86:93:152:241:363:381:42:114:162:192:394:402:47:53:61:89:144:146:204:207:117:160:167:69:112:121:173:268:27:41:46:92:129:130:203:242:263:282:306:322:407:432:441:479 -1:2:1:3 -1:73:2:27:17:172:43:52:70:101:135:23:104:142:18:55:113:21:42:15:189:7:20:91:171:36:60:212:9:192:78:74:41:98:118:25:10:44:51:69:56:102:110:140:30:31:46:177:61:67:120:134:145:14:53:225:32:62:1:34:144:228:323:6:143:54:133:173:183:210:161:176:12:80:114:123:155:197:218:234:11:49:85:139:149:170:96:132:8:76:99:154:162:45:71:77:167:185:29:90:95:130:33:75:124:129:341:50:117:163:38:68:146:150:322:157:179:97:106:116:125:127:138:47:58:5:28:89:115:131:164:190:233:398:13:35:39:112:126:174:209:121:175:208:232:19:93:103:105:72:152:324:407:410:178:193:137:194:206:403:402:409:414:119:128:412:153:166:397:400:417:65:59:79:94:214:405:86:88:107:168:401:408:57:4:141:217:243:63:340:66:191:64:244:418:451:122:404:479:87:448:454:92:223:3:180:188:83:108:156:184:220:449:136:399:82:147:219:24:182:204:455:480:100:221:26:40:84:148:169:216:284:22:481:160:450:494:165:222:37:151:283:81:498:502:211:495:497:224:477:485:496:499:500:203 [1:18] [1:8] [1:18] -1:2:1:0:3 [2:11] -1:0:2:1:3 [49:63.5] [54.200000000000003:305.39999999999998] -1:0:3:4:5:10:7:2:6:11:1:9:18:14:13:8:12:19:20:17:16:15:21 [1:18] [1.1000000000000001:907.10000000000002] [330:610] [-38:38] -1:120:148:127:38:124:9:170:125:71:201:4:75:128:15:78:119:166:99:168:43:149:39:126:3:1:83:16:13:90:60:174:21:289:133:20:56:8:59:85:335:102:25:151:22:10:14:108:5:82:18:105:80:88:165:12:11:157:76:44:396:7:154:142:57:52:290:123:404:355:358:359:32:40:2:26:91:111:275:364:180:304:23:109:196:116:428:81:303:100:104:48:79:427:94:101:230:17:96:302:339:54:137:478:397:398:138:163:374:375:122:362:31:51:87:98:156:179:194:371:376:208:381:107:113:134:139:182:186:147:215:278:360:33:95:198:300:401:452:145:402:429:447:454:28:30:86:131:136:153:184:185:448:24:114:141:403:442:487:42:58:132:135:209:363:167:204:411:53:129:144:162:171:188:203:434:455:27:93:146:369:457:41:73:117:121:130:152:192:240:322:332:394:29:36:46:47:61:97:112:143:207:241:268:380:407:432:441:460:479:492 -1:2:1:3 -1:73:2:27:17:172:43:52:135:23:21:70:42:101:104:142:15:113:20:7:18:60:189:78:36:55:212:171:192:9:118:41:53:74:10:67:56:69:98:34:44:46:102:31:51:61:91:134:140:30:32:177:210:25:144:145:14:62:110:225:6:54:197:120:133:173:123:161:176:228:323:114:154:1:11:85:170:183:12:76:77:49:132:162:179:218:8:96:155:29:71:80:139:150:167:185:33:38:68:97:124:127:143:234:13:45:95:130:163:5:125:157:341:47:112:116:117:138:149:28:129:190:208:398:50:99:146:175:233:19:39:58:75:106:115:121:322:35:90:93:105:174:72:103:164:209:89:178:126:152:193:194:206:232:153:410:65:119:166:324:407:137:79:128:131:400:401:414:86:107:141:402:59:168:403:417:88:94:191:214:405:409:63:66:408:217:412:57:122:4:243:340:451:397:3:82:87:92:108:219:24:180:220:223:479:64:188:244:399:404:418:169:449:454:22:147:184:204:84:156:221:83:148:182:448:100:455:480:26:40:136:222:216:151:165:160:224:284:450:81:283:481:494:211:502:37:495:496:498:497:109:203:470:477:485 [1:18] [1:8] [1:18] -1:2:1:0:3 [2:10] -1:0:2:1:3 [49:65] [53.899999999999999:289.10000000000002] -1:0:2:5:7:4:13:11:1:10:9:3:18:12:8:6:15:17:20:14:19:21:16 [1:18] [1.1000000000000001:785.60000000000002] [334:610] [-30:44] -1:1183:967:1790:3552:7042:12092:16940:253:2779:4337:7273:8141:10048:10795:15997:16596:18370:300:1504:1543:1586:1771:3055:3722:3967:4573:4662:4837:5112:5174:5213:5436:5517:5569:5796:6763:6840:7157:7754:7834:8917:9494:9808:10004:11171:11186:11250:11473:12010:12124:12462:12814:12965:12968:13776:13860:14183:15093:15497:16244:16721:17100:17569:17626:18369:18979:19299:19541:20129:20760:20773:20877:21223:21510:21664:21940:24227:24544:500:527:683:710:1169:1289:1319:1394:1502:1909:2625:2734:2818:2951:3095:3379:3409:3685:3706:3926:3974:4079:4166:4679:4701:4722:4764:5054:5080:5334:5458:5544:5568:5720:5721:6018:6173:6216:6342:6362:6451:6560:6628:6761:6776:6850:6900:6928:6930:6941:7023:7056:7170:7199:7240:7341:7390:7393:7830:7985:8002:8667:8855:8897:8925:9016:9060:9086:9161:9454:9752:9809:9814:9895:9972:9981:10068:10097:10151:10623:10765:10976:11025:11067:11194:11198:11233:11311:11312:11315:11445:11550:11587:11629:11635:11658:11826:11882:11961:12275:12432:12470:12515:12528:12653:12725:13172:13305:13417:13456:13556:13994:14123:14154:14199:14412:14461:14630:14692:14820:14853:14899:14926:14932:14965:14966:15011:15163:15569:15647:15675:15754:15848:15895:15941:16074:16164:16290:16343:16386:16418:16455:16901:17004:17114:17149:17423:17439:17533:17681:17726:18145:18194:18199:18271:18538:18655:19241:19292:19334:19421:19424:19438:19457:19632:19695:19718:19946:20227:20538:20656:20783:20928:21058:21295:21741:22034:22056:22168:22334:22342:22908:23766:23836:24178:24392:24646:25515:26765:26833:26935:26965:27213:27234:27731:29632:32136:53:94:205:218:279:297:507:603:605:606:624:669:742:798:850:861:932:961:982:994:1000:1060:1104:1128:1130:1180:1285:1361:1385:1417:1461:1472:1473:1474:1551:1723:1912:2000:2076:2078:2093:2097:2131:2165:2210:2236:2297:2379:2558:2642:2800:2819:2845:2914:2983:3062:3084:3091:3094:3146:3185:3191:3207:3228:3235:3259:3283:3344:3388:3416:3452:3478:3515:3531:3555:3561:3568:3650:3656:3689:3711:3736:3745:3857:3929:3939:3983:4013:4035:4098:4206:4280:4291:4326:4460:4481:4486:4541:4623:4761:4765:4807:4852:4899:4968:5042:5136:5178:5184:5225:5258:5280:5299:5307:5331:5366:5394:5403:5478:5632:5670:5738:5843:5868:5875:5892:6046:6056:6168:6172:6372:6444:6478:6515:6521:6541:6545:6580:6695:6749:6752:6757:6788:6815:6892:6906:6947:7048:7100:7121:7150:7151:7160:7186:7232:7263:7376:7386:7608:7664:7800:7843:7859:7877:7911:7931:7997:8068:8087:8118:8119:8157:8196:8230:8234:8366:8559:8604:8698:8747:8757:8758:8774:8800:8813:8856:8895:8952:8964:8981:9032:9048:9094:9101:9103:9146:9209:9638:9718:9783:9807:9815:9859:9948:9949:9974:9990:10051:10160:10162:10170:10172:10180:10225:10233:10240:10256:10260:10261:10262:10277:10301:10304:10313:10442:10511:10558:10573:10586:10594:10626:10757:10762:10769:10781:10906:10938:10971:11050:11066:11074:11126:11128:11176:11178:11213:11218:11268:11277:11299:11322:11370:11371:11422:11448:11456:11501:11523:11543:11594:11717:11774:11894:12002:12003:12028:12080:12089:12163:12181:12195:12229:12308:12311:12324:12328:12341:12398:12429:12457:12459:12526:12538:12576:12616:12631:12659:12720:12733:12768:12781:12784:12829:12839:12843:12877:12884:12919:12931:13010:13020:13052:13056:13080:13123:13258:13292:13307:13367:13378:13400:13434:13448:13477:13486:13503:13537:13555:13560:13569:13585:13612:13636:13672:13688:13695:13736:13741:13783:13813:13825:13870:14113:14164:14166:14184:14206:14231:14233:14357:14419:14443:14615:14658:14665:14670:14697:14735:14745:14751:14761:14765:14776:14816:14828:14854:14872:14917:14925:14927:14934:14944:14971:14996:15024:15042:15050:15069:15072:15107:15108:15111:15160:15192:15212:15362:15444:15457:15489:15526:15548:15617:15649:15693:15700:15717:15719:15766:15819:15840:15889:15904:15913:15915:15946:15947:16030:16093:16098:16134:16153:16216:16231:16234:16254:16277:16321:16334:16431:16446:16473:16526:16539:16555:16557:16585:16592:16602:16608:16761:16780:16781:17079:17123:17139:17189:17194:17203:17216:17224:17261:17262:17264:17296:17314:17351:17370:17412:17466:17507:17514:17555:17572:17575:17634:17677:17692:17766:17868:17977:18053:18067:18077:18138:18185:18233:18252:18269:18292:18304:18308:18353:18428:18440:18503:18640:18650:18682:18704:18732:18735:18736:18778:18849:18879:18900:18903:18949:19059:19243:19376:19444:19481:19505:19509:19518:19553:19612:19690:19729:19786:19789:19825:19853:19857:19928:19932:20148:20178:20208:20212:20234:20299:20317:20328:20366:20416:20448:20483:20501:20594:20601:20641:20654:20687:20768:20789:20893:20911:20913:20979:21059:21113:21228:21238:21256:21301:21327:21345:21365:21398:21485:21525:21532:21559:21577:21607:21608:21617:21642:21670:21711:21722:21764:21770:21802:21869:21903:21929:21930:21961:21989:22017:22045:22046:22194:22288:22333:22423:22579:22631:22645:22722:22802:22828:22880:22967:23059:23338:23354:23382:23430:23564:23687:23723:23759:23773:23873:23875:23944:23983:24005:24054:24180:24281:24287:24415:24425:24475:24477:24694:24880:24920:25015:25155:25186:25197:25229:25457:25540:25568:25620:25830:25911:25933:25945:26004:26065:26070:26263:26266:26297:26326:26352:26391:26419:26581:26934:27297:27527:27772:27836:27928:28119:28181:28240:28323:28420:28451:28907:29159:29459:29673:30295:30323:30424:30545:30781:32118:32222:32675 -1:120:148:9:38:125:78:201:119:15:170:127:71:75:83:39:99:128:16:43:60:124:149:4:59:3:85:8:126:133:166:174:289:10:168:13:25:56:1:102:90:335:14:21:108:5:22:20:80:165:82:151:105:88:396:154:355:12:18:40:11:142:157:76:358:404:44:359:290:7:57:52:364:304:32:123:91:2:23:398:275:116:26:454:478:111:122:180:303:428:448:17:101:196:360:403:427:109:397:230:94:137:48:300:31:79:100:138:96:54:81:302:374:152:208:369:113:153:185:198:375:51:134:376:442:182:186:339:362:447:33:104:147:215:401:135:145:188:455:24:429:452:179:93:132:163:194:363:87:95:114:171:184:411:30:139:141:371:28:86:136:402:487:42:107:131:278:434:457:34:53:84:89:98:167:407:47:121:146:205:268:332:41:61:173:204:207:209:239:381:394:441:6:162:192:322:66:144:156:160:241:315:449:479:19:55:58:67:129:190:199:203:233:234:240:257:263:292:296:361:380:420:432 -1:2:1:3:4 -1:73:2:21:17:52:14:43:104:55:149:27:172:23:53:192:20:110:44:101:135:30:74:46:25:78:113:42:51:189:193:183:15:118:161:60:167:61:102:41:71:91:7:18:33:98:171:212:117:140:11:77:85:155:228:70:9:10:32:54:142:62:95:176:323:120:143:177:225:234:132:144:210:134:398:28:31:36:128:341:80:96:129:139:1:115:133:163:197:67:123:56:69:185:29:152:8:125:130:13:99:131:146:6:39:76:90:50:68:164:397:5:49:119:127:145:162:178:208:218:414:34:45:103:209:340:324:409:79:83:157:170:194:243:12:63:75:233:322:405:179:19:57:93:410:116:244:407:412:86:97:114:154:168:173:214:174:223:232:403:404:417:47:66:89:175:106:112:138:35:59:121:400:402:137:150:401:4:58:206:38:88:124:126:94:166:180:105:190:191:153:141:399:418:408:72:92:107:449:147:217:188:65:84:454:451:448:450:184:122:24:64:169:156:100:479:480:495:87:216:221:455:481:26:82:108:136:496:165:182:37:283:494:22:219:151:222:284:498:148:470:81:220:485:493:502:160:204:211:497:499:504:3:203:226 [3:5] [5:5] -1:2:1:3 [2:12] -1:0:2:3:1 [48:65] [1:18] [1.1000000000000001:711.5] [364:628] [-44:38] -1:38:120:9:148:125:170:124:78:127:71:43:119:201:4:128:75:83:149:16:15:99:166:126:133:39:85:3:8:56:21:60:59:174:289:168:13:90:335:1:20:102:10:25:82:5:14:151:108:105:165:22:18:154:80:12:40:76:142:88:396:44:11:290:355:52:57:404:32:157:359:7:304:2:123:358:275:364:180:91:101:111:116:303:23:17:122:398:26:448:428:79:31:94:230:339:109:196:81:478:184:48:100:427:454:96:137:397:54:138:300:362:147:208:375:403:51:152:163:302:104:179:360:374:153:198:401:24:93:371:33:113:132:134:186:369:487:86:98:188:442:452:145:363:429:135:171:182:194:278:376:47:95:114:131:185:455:30:107:215:447:6:53:87:162:173:402:457:29:34:42:84:141:434:27:28:58:112:121:136:156:167:190:209:407:411:139:146:381:129:204:205:239:315:332:380:394:460:19:110:130:144:159:160:181:192:207:233:240:241:242:292:299:441:464 -1:2:1:3:4 -1:73:2:104:21:52:17:43:14:172:27:20:192:23:53:101:110:149:44:55:74:189:25:78:193:113:42:30:135:46:61:15:33:51:60:118:7:71:167:41:161:171:212:70:77:117:9:140:18:91:98:102:183:95:142:225:11:85:155:80:120:323:32:54:62:67:177:228:28:128:144:36:56:69:134:10:96:133:143:163:176:398:1:31:132:210:234:6:139:197:68:76:123:145:13:115:127:131:162:164:185:8:39:49:130:218:341:129:50:125:146:152:5:29:63:79:90:119:154:34:208:19:99:170:178:209:405:194:233:414:103:179:75:86:112:157:173:407:45:57:66:93:168:174:232:243:412:12:114:116:324:175:244:322:340:410:59:223:397:409:97:121:206:401:403:417:106:137:214:138:150:402:35:89:124:180:58:83:88:190:47:126:166:404:4:38:94:105:141:153:400:191:72:147:217:92:65:399:418:84:188:408:107:450:122:24:156:169:449:87:221:454:100:184:448:451:64:182:479:82:216:26:108:165:219:22:136:455:495:222:481:496:37:480:81:148:151:204:494:3:498:160:203:211:220:284:499:502:504:40:226:283:470:477:493 [1:18] [1:8] [1:18] -1:2:1:0:3 [2:11] -1:0:2:3:1 [48:63.5] [54:310.60000000000002] -1:0:3:8:1:9:5:10:4:7:2:6:16:15:12:14:13:11:19:18:20:17:21 [1:18] [1.1000000000000001:814.10000000000002] [366:638] [-38:44] -1:9:127:148:38:119:170:120:78:125:71:128:99:124:16:201:75:43:15:4:126:39:3:56:149:21:60:168:166:83:133:174:1:59:335:85:90:20:82:8:108:5:102:10:13:14:289:22:25:151:105:88:40:165:12:80:76:18:123:157:142:57:44:154:404:355:32:358:396:11:52:2:290:359:91:23:7:275:26:17:180:364:116:196:54:109:304:81:48:96:101:111:79:94:122:398:104:137:454:303:230:375:397:428:98:179:339:478:100:138:208:452:302:362:374:376:403:448:31:86:134:153:209:429:30:185:194:24:33:113:184:188:363:369:427:51:93:95:135:186:198:278:300:360:58:87:131:132:152:442:147:182:42:136:145:163:215:371:402:28:34:107:114:401:447:27:171:455:53:139:162:384:434:457:6:89:112:144:160:167:241:381:394:62:146:156:181:190:204:233:332:29:47:121:141:143:161:203:205:231:240:263:320:380:407:411:487 -1:2:1:3 -1:73:2:104:21:17:43:52:27:172:192:149:53:14:44:23:101:20:78:113:55:42:15:41:60:74:135:189:25:30:51:167:193:61:77:110:46:7:33:142:95:118:140:70:98:102:161:56:117:212:323:36:54:62:71:85:144:28:31:120:128:177:13:18:155:183:225:9:67:91:132:133:163:171:398:1:11:197:6:10:32:69:80:145:176:228:68:123:131:139:210:49:127:76:185:234:8:79:96:134:162:39:63:115:143:164:119:154:19:50:125:146:152:5:34:103:129:170:29:173:208:218:233:157:194:209:414:90:112:341:405:12:66:99:130:175:178:179:223:232:412:150:206:243:401:59:86:93:116:214:407:417:57:137:168:322:409:166:75:97:106:124:138:190:244:324:410:45:88:174:403:47:94:114:121:180:35:38:89:153:58:105:147:397:404:126:191:4:141:188:340:402:72:83:65:84:217:400:92:122:24:399:107:408:418:156:182:87:184:169:219:221:82:100:108:216:479:451:64:165:450:22:37:222:455:26:449:3:136:448:454:480:481:40:495:81:151:204:496:148:160:203:207:211:497:498:224:284:485:499:504:220:477:494:502 [1:18] [1:8] [1:18] -1:2:1:0:3 [2:11] -1:0:2:3:1 [48:63.5] [54.399999999999999:307.69999999999999] -1:0:1:4:3:6:5:11:2:7:10:14:12:15:8:20:16:13:17:18:19:9:21:24 [1:18] [1.1000000000000001:806.5] [356:614] [-32:48] -1:5591:5795:11688:1067:1293:1576:3146:3476:4171:5632:5760:6741:6978:8119:11264:11443:11961:12140:12406:13145:13677:15234:15742:17119:18030:21940:408:823:1351:1589:1723:1925:2845:3206:3690:3939:4140:4358:4897:4938:5174:5569:5797:6216:6354:6815:7072:7311:7374:7375:8315:8636:8644:8806:9808:10511:10646:11543:11579:11598:12108:13667:13747:14349:14357:14656:14699:14713:14792:15142:15445:15633:16119:16319:16439:17393:17555:17617:17682:17991:18058:18232:18709:20781:21598:23727:218:502:506:568:603:696:942:1183:1222:1259:1455:1473:1474:1519:2165:2174:2625:2711:2909:3227:3637:3901:4021:4098:4120:4644:4703:4722:4756:4790:4966:4967:4972:4998:5041:5273:5304:5394:5481:5515:5544:5681:5703:5945:6372:6556:6778:6892:7042:7053:7177:7186:7407:7420:7455:7963:8035:8044:8105:8505:8559:8706:8891:8964:9238:9803:10151:10173:10226:10276:10681:10795:10938:11006:11022:11262:11267:11277:11291:11311:11409:11421:11452:11456:11612:11653:12008:12281:12297:12342:12409:12474:12556:12705:12720:12814:12932:12973:12995:13023:13036:13092:13163:13378:13437:13540:13555:13608:13791:13828:13861:13877:14122:14206:14511:14658:14725:14779:14802:14842:14931:14950:14995:15046:15093:15108:15169:15226:15227:15240:15382:15489:15648:15830:15904:16078:16137:16220:16222:16252:16269:16271:16317:16332:16344:16602:16654:16658:16944:17234:17253:17278:17422:17442:17463:17510:17533:17562:17569:17602:17731:17803:18028:18127:18226:18274:18304:18351:18440:18735:19073:19569:19575:19660:19716:19853:19857:20287:20338:20377:20785:20820:21257:21258:21312:21371:21705:22157:22660:22770:22784:23682:23748:24315:24437:24559:24661:27674:52:94:141:192:258:269:300:307:385:494:551:590:607:626:631:657:679:680:699:735:742:778:810:941:970:993:1053:1060:1171:1201:1225:1261:1279:1327:1336:1365:1366:1390:1404:1454:1475:1520:1583:1611:1620:1661:1709:1733:1849:1912:2060:2159:2163:2203:2210:2255:2306:2481:2553:2567:2568:2642:2770:2771:2814:2867:2893:2899:2906:2937:2980:3028:3084:3133:3147:3201:3290:3332:3382:3385:3414:3416:3452:3599:3650:3698:3726:3755:3766:3839:3858:3864:3887:3891:3893:3977:4035:4078:4080:4122:4164:4206:4307:4326:4364:4408:4418:4554:4659:4678:4702:4726:4760:4807:4823:4827:4837:5049:5071:5178:5184:5213:5216:5244:5334:5363:5440:5477:5478:5512:5516:5553:5661:5753:5817:5875:5893:5922:6050:6108:6173:6184:6293:6350:6373:6405:6427:6520:6571:6579:6616:6662:6740:6757:6896:6900:6928:6930:6941:6994:7068:7107:7114:7170:7173:7187:7206:7251:7270:7271:7296:7309:7316:7317:7359:7366:7385:7386:7409:7416:7513:7830:7859:7866:7877:7911:7983:7998:8068:8132:8196:8309:8418:8630:8639:8667:8723:8740:8807:8808:8867:9001:9006:9016:9031:9053:9079:9103:9110:9114:9136:9176:9316:9514:9718:9720:9801:9805:9806:9807:9823:9843:9911:9974:10006:10017:10034:10067:10072:10122:10138:10148:10167:10174:10256:10275:10280:10320:10459:10471:10550:10573:10703:10705:10728:10736:10745:10753:10756:10760:10773:10774:10942:10976:11023:11102:11133:11150:11169:11190:11211:11244:11250:11275:11284:11288:11327:11371:11384:11398:11430:11445:11497:11594:11619:11666:11695:11771:11777:11835:11844:11874:11949:12001:12040:12092:12117:12132:12139:12163:12195:12197:12201:12224:12236:12244:12364:12375:12385:12428:12429:12475:12513:12560:12627:12671:12673:12692:12756:12769:12812:12821:12836:12882:12891:12911:12924:12942:12963:13010:13088:13262:13263:13355:13374:13387:13392:13400:13453:13456:13459:13460:13491:13515:13570:13609:13619:13637:13680:13701:13702:13712:13736:13741:13757:13797:13849:13904:13978:14069:14154:14168:14172:14229:14294:14389:14428:14439:14443:14565:14671:14701:14724:14729:14804:14832:14845:14851:14867:14869:14899:14905:14912:14922:14924:14966:14968:15014:15033:15072:15081:15097:15106:15135:15155:15198:15209:15210:15241:15327:15444:15481:15487:15577:15607:15638:15645:15647:15675:15769:15774:15806:15825:15890:15893:15899:15931:15986:15998:16006:16067:16112:16139:16191:16196:16203:16242:16244:16457:16460:16501:16555:16612:16761:16909:16958:16982:16994:17047:17056:17076:17169:17249:17255:17263:17292:17300:17323:17412:17519:17675:17677:17692:17702:17720:17726:17916:17917:17947:17998:18002:18018:18034:18055:18080:18083:18106:18115:18116:18117:18124:18126:18145:18158:18186:18210:18236:18267:18281:18287:18345:18369:18370:18380:18538:18610:18650:18703:18765:18839:18872:18879:18925:18948:18949:18954:18972:19010:19024:19127:19212:19240:19244:19305:19465:19497:19539:19555:19571:19586:19597:19637:19726:19727:19783:19830:19832:19868:19873:19895:19916:19989:20050:20075:20123:20145:20148:20395:20412:20415:20518:20565:20608:20648:20670:20727:20732:20760:20966:21024:21073:21142:21189:21223:21295:21354:21411:21464:21485:21503:21579:21631:21683:21688:21814:21845:21870:21993:21998:22045:22083:22124:22138:22174:22222:22249:22433:22499:22735:22741:22752:22891:23059:23094:23141:23338:23358:23370:23423:23425:23461:23719:23770:23870:23987:24104:24115:24126:24276:24280:24326:24375:24376:24441:24692:24816:24899:24902:25041:25180:25227:25316:25844:25915:25924:25925:25943:25980:26025:26032:26051:26147:26171:26238:26242:26325:26349:26534:26709:26815:26853:26966:27203:27262:27328:27638:27665:27774:27793:27838:27907:28019:28780:29026:29372:29435:29611:29767:29966 -1:148:120:127:78:124:119:15:38:125:75:170:9:71:43:201:128:126:289:39:168:83:16:149:60:21:166:3:85:59:99:4:102:133:1:13:25:90:14:56:335:151:174:10:8:165:5:20:108:82:22:80:105:396:88:18:355:76:57:157:12:154:142:358:44:7:11:359:91:290:40:123:111:304:364:26:52:404:398:397:32:116:180:275:2:109:303:427:101:23:100:302:428:478:17:362:94:122:339:448:454:196:403:48:54:79:104:138:360:447:24:429:31:137:230:374:186:96:147:300:455:139:376:401:135:107:182:371:198:215:152:184:51:93:114:136:141:98:145:153:208:375:33:113:171:194:369:81:163:167:402:411:134:179:278:363:442:185:188:452:190:381:434:30:42:156:61:86:95:209:457:460:487:131:132:146:160:332:380:29:204:432:28:47:173:192:241:394:407:41:53:84:87:92:117:144:162:207:344:441:449:6:34:46:89:121:129:130:159:181:203:233:239:285:294:297:322:384:474:479 -1:2:1:3:4 -1:73:110:21:44:43:15:25:189:51:134:2:17:52:9:42:101:27:31:46:172:183:23:39:176:212:140:34:135:161:18:36:113:142:55:70:30:78:33:56:120:20:102:114:139:61:67:29:80:104:45:74:192:79:128:149:162:19:58:60:98:197:210:41:69:228:6:32:116:53:77:91:118:157:7:11:71:155:95:143:167:1:322:14:57:124:131:10:93:132:179:193:398:50:171:324:8:47:96:146:170:177:185:54:85:99:138:163:97:123:154:208:117:174:225:5:13:106:130:234:323:410:49:86:209:218:28:76:127:144:152:12:125:129:173:341:401:68:133:115:407:178:75:194:414:63:412:164:340:397:83:89:121:145:206:90:103:107:126:417:105:150:4:35:62:119:137:400:66:72:112:232:402:38:94:168:190:454:88:409:451:166:180:405:223:404:175:59:122:243:188:214:403:153:233:418:64:399:408:65:191:244:141:217:92:84:169:449:455:136:450:481:24:108:479:496:147:182:221:82:216:480:3:22:219:220:204:284:448:156:485:100:184:495:87:165:498:81:160:222:283:492:494:40:26:151:148:211:477:493:502:504:109:497:203 [3:6] [6:6] -1:2:1:3:0 [2:11] -1:0:2:1:3 [48:63.5] [1:18] [1.1000000000000001:974] [368:620] [-38:42] -1:120:127:119:125:9:148:124:128:170:78:38:75:43:201:15:71:60:4:289:83:99:149:39:126:16:166:3:13:8:133:56:59:85:90:174:1:168:21:335:25:108:102:5:14:10:20:22:82:151:165:80:105:396:18:12:142:44:57:358:88:154:7:76:355:359:52:157:91:11:123:40:290:364:304:116:2:32:398:404:109:26:275:23:111:180:196:100:303:427:48:397:17:101:94:122:339:79:478:137:362:360:31:104:107:376:54:374:113:428:455:454:33:81:96:302:429:448:186:98:138:145:147:163:182:194:230:375:139:141:401:447:24:51:93:134:167:208:300:369:403:135:179:185:30:171:184:114:136:153:209:487:28:87:152:198:278:442:86:156:371:402:452:58:95:332:363:42:53:188:241:434:29:131:144:204:441:460:27:47:190:215:381:411:34:66:143:394:6:89:132:162:173:176:192:203:315:380:407:449:457:36:46:61:84:92:121:146:199:207:231:233:309:479 -1:2:1:3 -1:73:110:21:44:2:51:43:52:15:42:134:17:101:189:25:9:27:172:212:34:46:142:23:176:30:113:135:183:31:36:39:55:56:78:140:161:70:114:20:29:104:120:192:18:33:102:128:61:67:74:79:116:139:41:53:98:69:118:19:157:58:60:32:71:197:8:80:95:193:210:7:149:162:1:6:11:57:124:155:179:14:54:322:77:85:163:10:45:47:93:123:167:171:13:50:91:398:143:146:170:185:96:138:154:228:174:127:132:177:208:209:12:86:125:131:133:218:225:49:97:99:5:28:117:144:323:152:173:410:68:76:121:129:130:164:324:412:234:401:115:407:106:145:35:75:63:105:137:400:62:89:107:150:178:341:66:72:83:103:126:194:206:402:414:90:4:112:88:168:232:397:417:94:166:190:340:59:119:223:122:180:175:188:409:405:38:153:451:454:65:214:399:404:84:92:141:191:243:233:403:108:408:64:169:24:217:418:147:450:82:136:216:244:455:81:182:3:22:40:204:219:221:156:480:481:100:165:449:479:87:220:26:109:151:184:283:448:485:222:284:496:148:211:160:495:498:494:504:203:492:493:37:477:502 [1:18] [1:8] [1:18] -1:2:1:0:3 [2:11] -1:0:2:1:3 [48:63.5] [54.5:305.30000000000001] -1:0:11:7:6:10:2:18:5:14:4:19:13:3:17:20:9:8:16:21:12:1:15 [1:18] [1.1000000000000001:808.89999999999998] [376:608] [-44:40] -1:125:127:78:71:128:148:120:9:124:38:170:119:201:43:75:15:4:60:166:149:59:99:39:3:13:16:168:126:83:8:289:1:56:20:21:85:90:133:174:5:25:335:14:10:102:108:105:22:165:151:80:82:18:157:12:76:40:52:88:142:355:7:44:396:359:2:57:358:11:91:123:154:290:23:196:304:404:26:116:364:32:111:48:109:398:275:17:101:427:122:54:397:79:303:100:180:31:94:230:137:138:360:81:184:339:362:374:163:376:454:194:302:429:96:113:182:186:478:30:51:107:375:24:33:104:153:208:428:448:141:145:171:278:93:131:135:152:209:300:28:134:185:369:401:98:371:403:447:86:114:136:147:156:198:455:89:139:167:204:402:442:452:487:42:58:87:241:381:394:457:34:61:84:95:129:143:144:146:162:179:215:268:53:132:181:322:434:6:19:29:37:130:207:407:411:449:67:117:121:188:190:203:231:246:332:363 -1:2:1:3 -1:73:110:21:51:2:44:42:134:43:27:52:101:9:15:34:78:142:189:212:23:140:176:172:17:25:113:31:46:70:192:36:104:120:30:135:128:33:55:139:183:8:19:20:56:98:161:29:41:53:79:39:102:114:71:95:157:67:74:118:179:11:18:80:116:124:60:69:1:57:61:193:210:6:154:58:155:171:14:50:77:132:197:54:85:163:10:91:146:149:13:93:96:7:32:49:123:125:133:138:209:47:143:162:170:225:228:323:398:167:218:322:45:86:117:127:177:185:131:145:174:412:28:12:121:144:152:5:76:130:150:407:35:63:97:99:164:173:208:115:234:410:68:129:324:72:75:89:103:105:106:112:126:401:62:137:400:178:194:59:66:107:122:206:402:83:119:223:88:168:341:4:90:94:180:190:232:405:38:166:188:417:153:175:84:409:340:397:414:65:92:141:451:399:82:108:169:81:233:403:408:454:24:214:243:3:64:136:147:191:219:216:217:455:22:221:404:40:244:87:151:182:450:26:165:204:418:480:156:100:481:220:222:448:479:485:109:184:148:284:449:160:283:203:211:494:224:492:493:496:502:504:37:498:477 [1:18] [1:8] [1:18] -1:2:1:0:3 [2:10] -1:0:2:1:3 [48:63.5] [54.5:304.69999999999999] -1:0:1:2:6:5:12:10:8:9:17:11:14:13:3:7:4:15:16:19:21:18:20 [1:18] [1.1000000000000001:877.20000000000005] [370:602] [-32:40] -1:603:10123:53:2428:3141:6046:14804:17804:18879:2625:5922:6906:7177:7755:10760:14572:14844:15088:15479:16002:19928:96:699:715:1417:1764:1768:2737:3329:3755:4006:4035:4674:4760:4793:5174:6362:6941:7106:7317:8017:8425:8952:9166:9174:9926:10072:10313:10608:11130:11421:12673:12782:12968:13046:13052:13560:14100:14195:14411:14513:14926:15400:15477:15489:15645:15653:15910:15946:16148:16982:17058:17224:17262:18067:19651:19779:19939:20792:21533:21807:23808:24254:24344:25147:141:255:333:452:527:530:628:850:982:1000:1169:1289:1293:1351:1576:1586:1661:1723:1735:2074:2236:2255:2297:2720:2759:2779:3081:3185:3345:3478:3745:3803:3835:3859:4112:4287:4717:4839:4922:4944:5043:5084:5178:5305:6184:6444:6740:6765:6778:6788:6874:6907:7076:7214:7404:7686:7981:7997:8068:8230:8403:8837:8855:8964:9053:9097:9187:9474:9814:9860:9881:9905:9972:9983:10068:10122:10129:10139:10160:10260:10275:10285:10302:10320:10511:10649:10664:10688:10692:10999:11123:11143:11168:11213:11250:11292:11315:11400:11435:11456:11563:11688:12182:12230:12264:12291:12338:12415:12432:12492:12517:12519:12569:12621:12836:12950:13378:13464:13537:13556:13708:13715:13804:13846:13877:14065:14227:14263:14438:14651:14658:14703:14726:14805:14832:14860:14968:15122:15124:15169:15497:16134:16204:16222:16503:16563:16608:16690:17102:17129:17144:17180:17254:17258:17381:17421:17447:17519:17627:17720:17917:17978:18030:18076:18110:18199:18364:18667:18883:18964:19453:19480:19752:20103:20188:20249:20299:20384:20601:20613:20783:20892:21397:21603:21914:22433:22574:22880:23355:23574:23861:24173:25226:25262:25447:25734:25813:26236:29687:3:27:103:205:291:310:425:470:535:669:670:675:738:740:769:771:780:864:865:899:950:967:970:1067:1077:1105:1128:1164:1189:1206:1207:1222:1226:1279:1319:1323:1325:1332:1335:1336:1385:1457:1474:1476:1508:1543:1573:1583:1603:1642:1763:1771:1847:1849:1915:1989:2011:2048:2097:2100:2141:2159:2186:2328:2533:2535:2558:2664:2702:2746:2770:2778:2819:2893:3055:3074:3085:3095:3146:3209:3332:3513:3522:3539:3552:3578:3594:3619:3666:3688:3698:3699:3879:3881:3932:3967:3983:4037:4117:4141:4146:4153:4164:4521:4541:4593:4622:4679:4701:4702:4758:4764:4773:4827:4835:4878:4941:4947:4955:4967:5024:5088:5112:5113:5159:5197:5217:5290:5299:5307:5430:5478:5481:5517:5520:5523:5596:5630:5661:5703:5720:5804:5843:5852:5938:6038:6102:6180:6234:6354:6368:6371:6460:6466:6496:6504:6533:6568:6616:6752:6793:6917:6928:7023:7036:7051:7069:7100:7108:7141:7186:7197:7309:7313:7374:7379:7386:7394:7406:7409:7421:7426:7492:7800:7854:7859:7886:7961:7983:7985:8119:8129:8135:8141:8196:8406:8509:8559:8621:8644:8667:8817:8892:9006:9028:9031:9035:9036:9045:9047:9065:9073:9086:9122:9135:9204:9274:9308:9403:9494:9736:9806:9809:9815:9835:9836:9841:9843:9852:9901:9934:9948:9974:9987:10076:10090:10126:10148:10180:10185:10217:10227:10256:10304:10594:10670:10705:10731:10743:10752:10768:10803:10861:10895:10972:10980:11016:11097:11101:11113:11128:11150:11186:11311:11319:11409:11414:11427:11442:11452:11476:11477:11520:11578:11579:11594:11607:11629:11638:11653:11689:11704:11713:11751:11758:11849:11874:11949:11961:12004:12010:12103:12198:12275:12289:12298:12337:12347:12348:12374:12408:12428:12457:12513:12531:12538:12597:12616:12670:12711:12757:12768:12799:12846:12857:12877:12880:12932:12946:12967:12987:13023:13037:13093:13271:13341:13367:13448:13471:13477:13514:13581:13677:13684:13776:13779:13780:13803:13816:13848:13863:14069:14090:14185:14199:14225:14261:14352:14417:14423:14443:14461:14511:14583:14615:14656:14696:14699:14708:14724:14727:14731:14746:14759:14763:14776:14779:14869:14871:14922:14935:14977:14983:14985:14993:15018:15024:15027:15034:15043:15050:15059:15060:15072:15101:15107:15212:15214:15227:15234:15242:15356:15357:15358:15475:15482:15537:15547:15557:15599:15664:15700:15758:15824:15840:15853:15905:15909:15942:15943:15948:15982:16006:16102:16137:16254:16302:16311:16330:16331:16386:16442:16470:16507:16528:16538:16581:16654:16868:17048:17070:17078:17124:17139:17156:17166:17230:17261:17263:17299:17370:17380:17399:17440:17455:17553:17556:17616:17619:17624:17680:17712:17740:17785:17803:17845:17894:17920:17975:17977:17991:18033:18062:18079:18101:18116:18145:18185:18192:18270:18275:18292:18301:18312:18330:18370:18395:18409:18434:18440:18471:18514:18528:18649:18722:18842:18901:18972:19039:19121:19188:19292:19334:19386:19420:19481:19543:19573:19595:19603:19626:19644:19693:19717:19758:19761:19765:19778:19827:19831:19881:19898:19929:19941:20096:20114:20236:20309:20310:20314:20343:20362:20363:20438:20463:20483:20504:20518:20519:20567:20626:20637:20639:20657:20724:20746:20789:20819:20836:20911:20920:20932:20953:21001:21058:21073:21097:21257:21305:21350:21420:21450:21461:21498:21523:21532:21561:21608:21617:21625:21674:21692:21766:21817:21882:21929:22021:22083:22088:22104:22271:22372:22393:22420:22427:22432:22607:22656:22658:22673:22735:22741:22792:22840:22857:22883:23011:23023:23038:23139:23167:23323:23400:23541:23572:23575:23636:23656:23672:23736:24107:24284:24490:24539:24549:24600:24608:24614:24625:24638:24691:25277:25301:25305:25398:25399:25428:25620:25629:25676:25850:25979:26008:26130:26143:26170:26190:26201:26296:26377:26531:26604:26641:26817:27335:27360:27747:27799:27938:27940:27943:27952:28052:28181:28306:28696:28697:29332:29409:29531:29836:29960:30014:30907:31614:31828:31949:32068:32132:32426 -1:120:148:125:170:9:38:127:124:75:78:71:119:128:201:43:60:15:39:126:166:133:83:4:85:99:13:90:59:168:3:289:1:8:149:16:335:21:25:14:22:56:174:10:102:5:108:82:165:20:105:18:80:151:12:88:396:358:355:44:40:32:290:359:157:76:142:154:11:91:52:123:304:57:364:404:7:2:180:275:303:397:398:26:478:31:109:196:17:116:300:101:362:427:428:23:100:54:111:448:79:122:302:138:454:24:48:230:339:403:81:94:455:134:447:137:360:369:401:107:184:182:96:113:185:376:98:104:215:375:30:51:153:167:374:186:371:136:198:28:86:114:147:131:171:429:93:152:33:135:179:442:139:145:156:188:434:452:95:146:363:457:47:194:204:402:411:487:42:208:6:29:163:332:381:61:121:132:141:209:207:460:53:87:89:112:130:144:162:190:242:278:285:315:394:407:36:41:117:160:192:240:241:268:449:479:65:66:129:143:173:292:321:346:420:432:493 -1:2:1:3:4 -1:73:17:172:43:101:110:23:189:2:78:183:143:42:149:134:36:120:46:210:7:21:27:68:25:41:55:113:135:80:139:192:176:30:51:56:116:194:20:104:9:52:71:11:18:74:117:33:54:60:95:177:1:44:85:171:53:91:162:164:228:69:123:140:322:49:70:161:99:142:12:34:102:398:6:118:124:15:77:98:155:31:62:193:8:28:38:47:127:153:167:14:19:50:86:185:323:407:45:132:146:197:324:10:35:138:144:234:97:126:57:76:154:209:32:130:403:79:96:166:173:225:61:105:129:5:67:114:115:29:72:128:218:232:340:39:13:119:125:133:150:163:212:88:152:179:233:401:83:168:410:417:106:170:408:409:341:58:93:157:178:208:414:75:175:174:190:243:59:63:65:103:131:4:89:107:121:412:137:405:66:145:206:397:94:402:90:112:141:214:223:217:400:404:399:122:180:451:191:244:454:100:448:455:84:108:87:418:92:184:221:449:3:24:147:169:479:64:188:165:204:494:450:22:216:481:26:136:283:480:496:182:500:82:148:219:477:499:504:485:495:498:220:284:40:211:497:37:156:222:493:203:492:81:151 [4:7] [7:7] -1:2:1:3:0 [2:10] -1:0:1:3:2 [49:63.5] [1:18] [1.1000000000000001:944.5] [350:592] [-38:45] -1:120:127:148:9:38:125:78:43:170:124:119:126:71:128:4:39:201:75:15:16:13:59:149:56:99:166:168:3:60:8:133:1:83:85:174:90:335:102:21:25:20:289:108:10:5:105:22:14:80:151:82:165:12:76:88:396:157:40:57:358:18:359:355:154:7:44:52:32:290:304:11:123:2:142:91:364:26:404:180:196:275:398:17:111:109:81:397:122:448:302:116:230:23:79:303:101:94:31:339:48:428:30:54:478:24:360:362:100:107:137:138:427:447:113:182:184:374:454:51:179:376:403:98:163:371:153:215:96:104:134:300:369:136:152:198:375:442:131:185:186:429:455:28:114:147:167:401:188:86:93:171:209:452:87:194:278:363:33:61:130:162:402:47:95:139:141:332:42:132:135:394:460:487:6:27:156:208:241:268:381:411:36:41:53:58:121:145:457:144:204:407:434:34:46:62:63:84:89:129:143:228:240:242:408:472:479 -1:2:1:3 -1:73:172:17:2:23:101:43:110:189:78:134:183:36:210:46:55:143:42:192:21:120:149:7:68:113:139:20:41:135:25:51:194:9:18:27:52:56:71:104:176:49:60:74:95:177:11:30:53:140:228:33:54:44:117:162:1:116:171:322:70:85:164:12:69:80:91:19:34:161:6:118:197:8:14:62:123:28:142:193:38:47:102:124:10:15:31:45:97:98:138:153:155:234:398:77:99:132:96:127:144:167:209:35:76:86:130:146:185:50:67:323:57:61:79:225:324:126:154:13:173:407:5:72:105:133:232:32:114:115:119:125:168:212:218:401:128:150:166:179:403:29:75:88:129:152:163:106:170:208:233:340:417:59:39:93:175:190:410:58:63:107:131:145:178:409:66:103:341:408:89:121:157:4:174:65:137:83:90:122:141:223:412:414:206:217:243:397:112:405:180:214:191:399:400:94:404:108:455:100:402:84:451:24:87:92:147:221:244:3:188:454:165:216:64:184:169:204:479:22:26:418:448:449:182:450:494:136:82:481:219:496:485:40:148:283:477:480:211:220:499:151:222:500:504:156:160:224:495:37:81:226:284:498:203 [1:18] [1:8] [1:18] -1:2:1:0:3 [2:10] -1:0:1:2:3 [48:63] [54.200000000000003:291.5] -1:0:1:13:5:4:3:6:2:7:8:17:10:9:14:12:15:11:19:18:20:16:21:25 [1:18] [1.1000000000000001:793.79999999999995] [362:590] [-40:42] -1:120:127:38:124:148:9:125:170:78:119:71:43:75:99:4:128:166:201:59:149:56:15:126:39:1:60:3:168:83:102:85:8:21:174:16:90:133:13:289:10:20:335:82:108:5:22:14:25:151:105:18:88:76:165:396:12:157:44:154:80:57:52:40:2:123:304:7:359:142:355:11:358:290:32:26:364:180:91:275:404:230:81:111:116:17:23:94:101:109:339:398:79:196:122:31:100:48:303:360:96:179:374:478:30:138:397:427:184:194:93:98:104:113:137:302:375:428:51:376:24:54:134:136:182:300:362:454:28:209:448:107:163:369:403:447:131:153:215:371:487:185:6:33:401:58:95:135:152:167:429:434:442:27:114:198:278:402:86:139:162:186:188:381:452:61:87:141:156:171:47:89:204:208:441:457:34:121:132:241:363:129:145:159:332:455:19:29:42:63:106:112:117:130:146:147:192:242:292:498 -1:2:1:3 -1:73:17:172:23:101:2:189:110:36:43:134:149:68:183:46:78:42:113:176:120:210:27:49:55:135:143:41:56:192:21:25:104:20:52:194:140:7:117:177:34:74:11:30:53:54:69:95:139:9:12:60:71:228:44:51:80:85:18:70:171:1:33:91:162:164:19:116:118:142:155:161:322:8:31:132:153:193:197:97:102:123:124:14:38:47:138:234:45:144:323:96:398:28:35:61:76:86:98:99:127:130:209:167:15:67:77:114:13:57:62:146:232:5:6:10:126:154:185:32:50:72:125:166:407:75:150:212:133:152:168:173:179:218:225:401:119:324:63:79:115:105:128:129:170:403:29:58:59:88:121:131:145:175:208:417:122:157:174:190:4:66:106:163:233:89:103:90:107:137:141:178:340:410:341:409:65:83:93:112:180:206:39:412:214:217:223:191:397:405:414:408:84:94:108:147:243:399:24:92:402:87:188:400:404:165:216:221:3:100:454:22:169:26:64:451:184:204:244:182:455:219:479:82:136:418:448:40:449:494:481:148:224:450:151:496:156:160:220:222:283:477:485:37:211:499:81:203:284:480:495:500:504:226:325 [1:18] [1:8] [1:18] -1:2:1:0:3 [2:10] -1:0:2:1:3 [48:63.5] [54.5:306.80000000000001] -1:0:2:9:10:5:11:7:8:3:14:13:6:15:1:12:16:18:19:4:20:21:17 [1:18] [1.1000000000000001:791.5] [370:588] [-32:42] -1:14724:553:4006:4702:9148:7240:8017:9814:10020:12318:13036:13803:14094:14841:15033:17000:52:205:735:946:1001:1293:1472:1474:1586:2320:2513:2741:3476:3833:4370:4679:4878:4928:5394:7341:8113:9013:9031:9053:9281:9768:10160:10663:10708:10747:11097:11147:11299:11448:11523:12109:12221:12432:12493:12538:12965:12971:13653:13748:14596:14968:14993:15165:15808:16442:16585:17556:18049:18384:18458:21878:27:96:605:607:850:904:933:934:973:1067:1226:1259:1308:1455:1577:1591:1620:1635:2507:2770:2779:2906:2949:2985:3036:3062:3332:3470:3650:3654:3706:3763:3875:4080:4098:4578:4722:4828:4897:4958:5088:5360:5425:5491:5499:5568:5843:5868:6092:6173:6280:6362:6477:6666:6752:6815:7036:7308:7316:7317:7361:7513:7706:7997:8630:8661:8887:9045:9057:9101:9144:9618:9849:9940:9976:10075:10122:10608:10800:11061:11124:11213:11254:11270:11395:11447:11497:11501:11560:11616:11621:11961:11965:12048:12092:12124:12406:12428:12500:12503:12671:12720:12814:13039:13046:13188:13199:13271:13449:13502:13724:13783:14119:14183:14201:14233:14235:14260:14295:14671:14778:14915:14984:15174:15242:15475:15479:15489:15599:15848:15946:16012:16137:16174:16203:16204:16215:16584:16684:16943:16963:17048:17144:17190:17234:17251:17278:17315:17321:17381:17616:17712:17720:17780:18275:18301:18406:18503:18851:18979:19521:19671:19713:19946:20452:20729:20782:21114:21157:21327:21365:21500:21647:21976:22112:22136:22629:23871:24316:24357:24494:25117:25198:25355:26243:26692:26704:26883:27286:51:53:218:255:272:281:290:307:413:502:514:527:606:638:671:677:710:717:940:961:1060:1073:1113:1164:1167:1183:1207:1222:1229:1351:1362:1363:1461:1537:1543:1560:1574:1642:1723:1768:1790:1820:1907:1912:1921:1991:2013:2061:2066:2099:2100:2109:2450:2625:2720:2771:2773:2802:2814:2928:2954:2983:3048:3055:3074:3100:3146:3227:3330:3331:3393:3416:3428:3481:3547:3627:3649:3722:3756:3780:3825:3856:3879:3893:3897:3923:4013:4021:4114:4120:4140:4156:4173:4223:4308:4411:4623:4658:4674:4678:4701:4747:4764:4783:4812:4837:4914:4922:4939:4976:5010:5043:5112:5179:5197:5236:5299:5301:5330:5337:5469:5477:5527:5569:5670:5698:5722:5980:6018:6047:6277:6331:6366:6427:6445:6446:6616:6628:6788:6793:6874:6902:6941:6963:6985:7048:7053:7076:7125:7141:7151:7177:7215:7223:7234:7249:7261:7310:7416:7695:7777:7871:7877:7946:7980:7982:7985:8024:8052:8117:8128:8234:8315:8374:8412:8559:8642:8659:8812:9042:9047:9069:9072:9097:9115:9164:9223:9308:9316:9710:9723:9882:9914:9939:9955:9966:9975:9999:10068:10123:10139:10148:10169:10185:10187:10200:10222:10226:10277:10302:10304:10514:10524:10541:10622:10658:10662:10672:10684:10725:10757:10773:10895:10976:11032:11038:11041:11050:11054:11196:11209:11215:11239:11292:11311:11316:11414:11434:11456:11465:11527:11579:11614:11671:11711:11752:11810:11891:11894:12005:12006:12010:12028:12125:12139:12220:12252:12272:12275:12282:12288:12296:12321:12322:12332:12362:12404:12409:12414:12462:12491:12509:12569:12583:12684:12692:12777:12781:12799:12866:12931:12962:12968:12970:13227:13312:13360:13383:13385:13387:13421:13456:13503:13540:13555:13570:13578:13608:13637:13688:13695:13707:13741:13771:13772:13774:13814:13829:13843:13848:13949:14145:14199:14224:14234:14316:14369:14417:14443:14452:14477:14479:14513:14650:14704:14729:14730:14761:14765:14785:14803:14899:14927:14950:14980:14983:14995:15046:15057:15079:15092:15111:15125:15160:15166:15184:15217:15231:15234:15247:15252:15327:15497:15521:15531:15590:15668:15702:15821:15836:15899:15906:15907:15936:15941:15950:15982:16017:16042:16057:16065:16139:16148:16187:16331:16449:16450:16455:16503:16512:16514:16555:16557:16582:16592:16672:16708:16724:16818:16826:16901:16932:16949:16958:17012:17027:17259:17260:17365:17384:17406:17492:17503:17507:17519:17530:17538:17558:17569:17575:17617:17634:17644:17685:17690:17692:17917:17966:17971:17989:18083:18127:18138:18173:18196:18230:18250:18277:18407:18428:18446:18447:18484:18499:18500:18534:18570:18654:18679:18690:18722:18732:18736:18769:18820:18849:18862:18957:19071:19244:19253:19274:19333:19430:19453:19480:19481:19523:19532:19536:19585:19599:19601:19612:19637:19655:19715:19727:19743:19764:19765:19780:19816:19830:19836:19860:19881:19898:19989:20092:20123:20129:20139:20165:20166:20195:20211:20227:20234:20269:20299:20501:20519:20541:20562:20601:20634:20656:20678:20732:20760:20773:20859:21002:21095:21263:21317:21355:21358:21399:21483:21598:21607:21643:21658:21669:21723:21754:21779:21882:21929:21937:22046:22068:22075:22127:22144:22215:22231:22281:22285:22368:22413:22418:22468:22494:22504:22603:22639:22643:22651:22667:22688:22696:22713:22738:22745:22829:22876:22880:22926:23007:23011:23039:23103:23309:23327:23399:23455:23512:23543:23564:23572:23741:23786:23921:23944:23956:24344:24346:24388:24390:24439:24461:24483:24504:24555:24556:24616:24703:24856:25146:25162:25406:25427:25441:25590:25838:25865:26118:26172:26233:26329:26337:26359:26586:26605:26688:26737:26758:26871:27130:27247:27424:27530:27564:27613:27819:27962:28982:29028:29315:29379:29772:31605:31714:31909:32220:32541 -1:170:120:148:9:78:127:201:125:38:119:124:75:4:166:15:133:71:83:60:128:39:289:16:43:8:126:90:99:85:149:335:56:59:1:13:3:14:102:174:25:10:168:20:22:21:105:80:5:82:108:165:396:151:88:18:44:12:290:154:359:355:358:157:11:142:32:76:52:7:57:304:91:23:40:123:398:364:26:196:397:303:2:275:111:404:454:478:427:79:116:180:302:428:101:448:17:94:122:100:109:138:362:54:230:137:300:360:104:48:113:401:403:31:81:374:24:215:179:339:33:429:455:147:208:93:107:134:198:376:447:96:153:152:163:184:51:141:145:371:375:452:98:139:369:86:186:402:28:135:194:278:442:95:188:381:411:457:114:132:136:156:167:182:185:363:394:6:131:209:332:42:46:171:487:144:434:30:87:112:162:190:315:479:34:61:89:130:143:160:192:203:204:233:241:294:45:47:121:146:199:432:441:460:27:36:53:110:159:239:245:268:296:322:384:456:458 -1:2:1:3 -1:73:27:25:55:17:172:2:60:41:51:189:43:113:18:52:30:74:161:21:143:23:110:56:78:134:36:77:101:15:98:20:139:42:167:116:91:102:130:183:228:31:33:69:104:177:323:14:39:46:132:8:13:44:142:45:61:96:114:210:135:76:80:192:7:70:212:234:163:398:54:99:173:11:49:71:176:117:171:9:12:35:53:140:144:225:10:58:67:123:95:131:1:32:34:62:149:185:197:68:194:28:79:97:103:120:128:129:164:322:5:118:162:209:193:29:126:133:218:397:6:57:93:112:138:157:85:119:150:154:407:410:90:124:127:175:233:324:105:155:170:83:125:146:152:19:59:208:89:106:115:405:75:88:178:340:65:86:168:63:166:400:47:145:206:232:243:341:50:174:223:414:417:72:137:401:121:153:402:4:38:190:399:66:191:188:408:412:179:454:409:94:244:403:404:479:92:107:418:180:217:141:450:3:100:122:221:451:84:214:82:448:449:64:169:184:24:147:136:156:495:26:182:216:219:455:496:22:480:108:165:204:37:220:481:284:497:87:151:40:222:485:492:493:498:504:81:148:160:211:494:477:499:500:283 [4:8] [8:8] -1:2:1:3:0 [2:11] -1:0:1:2:3 [48:63.5] [1:18] [1.1000000000000001:767.20000000000005] [366:636] [-34:36] -1:120:38:170:9:148:127:78:125:75:4:119:124:128:15:71:126:201:39:43:1:99:13:133:83:60:8:16:289:166:168:21:10:3:85:56:174:59:22:14:149:108:90:102:335:20:25:105:5:151:18:82:80:88:165:44:396:12:157:52:76:154:57:142:290:359:123:355:11:364:40:32:304:91:7:275:358:23:404:478:196:2:180:454:79:100:111:122:116:398:427:101:26:303:17:397:54:94:138:302:48:113:81:339:109:428:104:163:24:230:374:448:31:96:153:184:360:363:362:375:134:137:147:300:447:194:215:376:401:429:107:182:186:208:278:33:86:135:403:141:145:179:198:51:95:114:152:171:188:381:394:452:30:93:185:241:28:131:132:136:167:204:369:371:402:87:98:209:455:139:156:322:457:6:42:144:292:441:479:29:121:130:199:207:332:34:53:112:117:143:160:162:407:442:487:92:97:110:140:161:266:268:344:380:384:411:432:434:449 -1:2:1:3 -1:73:27:55:25:2:17:172:43:51:60:113:41:52:189:74:21:77:18:30:78:101:23:15:31:42:56:134:161:36:110:177:143:167:20:102:139:13:46:104:116:132:14:44:98:130:183:192:323:69:228:8:70:33:96:114:142:11:53:76:234:39:210:45:80:91:163:212:123:135:173:398:7:54:61:131:171:176:49:117:197:225:9:12:95:35:68:71:99:140:209:1:97:5:34:79:162:67:150:194:10:133:157:28:58:103:126:128:144:322:62:120:127:138:149:164:175:29:112:118:125:170:218:32:105:119:154:19:124:155:185:193:410:6:90:93:129:145:324:63:106:146:166:407:59:75:65:83:86:88:168:233:405:85:152:66:208:47:57:89:115:206:232:414:72:178:190:243:397:401:50:223:340:121:153:174:179:191:412:4:38:341:402:137:399:417:180:188:94:400:409:84:217:408:107:122:404:418:92:3:100:221:403:451:454:479:141:64:24:184:244:82:169:182:219:450:147:214:136:216:448:26:204:449:165:220:108:156:22:37:87:455:480:495:151:481:284:496:81:222:492:211:40:48:160:148:224:485:493:497:498:499:504:203:477 [1:18] [1:8] [1:18] -1:2:1:0:3 [2:11] -1:0:1:2:3 [48:63.5] [54.200000000000003:304.89999999999998] -1:0:4:11:7:13:5:6:12:10:17:16:1:9:8:14:3:18:19:2:15:21:20 [1:18] [1.1000000000000001:974] [368:634] [-34:48] -1:120:170:9:38:125:127:148:78:124:119:71:75:43:126:201:4:128:15:166:8:16:149:1:56:39:85:99:13:21:289:168:60:174:83:25:133:3:90:102:10:59:335:20:22:105:108:14:82:151:5:18:80:165:12:44:88:157:396:2:57:154:52:123:32:142:11:7:304:358:76:290:355:275:364:196:91:40:359:180:26:404:23:79:116:398:111:101:17:94:81:138:163:303:122:397:54:100:109:374:428:48:230:113:184:376:478:194:302:371:448:454:147:427:104:209:114:137:278:429:179:185:300:24:86:153:208:452:51:96:107:362:375:186:339:360:403:442:447:93:95:134:152:156:198:401:30:33:145:188:241:363:58:98:131:135:487:87:89:139:141:144:171:28:31:182:207:381:402:411:117:121:130:132:167:215:268:369:407:6:136:332:394:457:29:34:41:42:53:84:160:162:192:199:282:27:46:77:143:177:190:204:221:287:315:322:324:432:455 -1:2:1:3 -1:73:27:2:172:43:25:78:101:17:51:55:60:52:77:113:21:30:42:15:41:74:18:20:189:36:134:23:46:56:139:177:13:31:44:110:161:192:132:102:167:98:104:116:14:96:183:8:53:69:130:234:76:143:163:173:11:61:176:225:70:117:123:142:197:323:7:228:398:35:114:210:9:54:68:80:97:171:212:34:140:33:67:71:91:95:99:135:12:45:49:157:162:39:133:194:209:28:138:1:5:10:112:128:150:166:58:105:120:175:29:79:106:118:127:131:144:145:164:6:32:62:218:125:126:155:170:322:19:59:103:154:193:63:65:88:90:119:149:168:233:410:75:66:93:146:190:72:121:124:185:405:47:85:179:232:57:83:89:129:153:178:206:324:407:174:401:208:223:38:180:191:341:414:50:86:115:152:188:243:340:412:4:417:84:137:397:402:3:122:217:399:107:409:400:92:94:141:184:221:100:182:404:408:169:403:418:451:24:82:147:214:219:454:479:64:216:136:244:165:204:220:450:26:87:22:37:156:455:151:448:449:480:481:495:40:108:222:48:81:224:284:496:211:492:160:493:148:504:203:497:498:499:477:485 [1:18] [1:8] [1:18] -1:2:1:0:3 [2:10] -1:0:1:2:3 [49:63.5] [54.100000000000001:303.5] -1:0:5:12:1:7:9:11:2:3:8:13:10:14:6:18:4:17:15:16:21:20:19 [1:18] [1.1000000000000001:704.29999999999995] [376:638] [-36:42] 